svm_type c_svc
kernel_type rbf
gamma 0.09
nr_class 2
total_sv 36
rho -0.519573
label 71 72
nr_sv 25 11
SV
0.2817501564649333 1:0.56518501 2:0.3914111 3:0.38165861 4:0.59103435 5:0.43953893 6:0.58833396 7:0.60072076 8:0.61751211 9:0.78127593 10:0.70412242 11:0.71535134 12:0.17568021 13:0.58813703 14:0.71006125 15:0.34683275 16:0.52217346 17:0.83257979 18:0.61608696 19:0.9515689 20:0.2620846 21:0.63134634 22:0.67945969 23:0.91468644 24:0.50972801 25:0.50592405 26:0.76308876 27:0.54474145 28:0.4212774 29:0.87271345 30:0.20337453 31:0.4034656 32:1 33:0.28040043 34:0.43380901 35:0.54096919 36:0.69721472 37:0.57724899 38:0.93124759 39:0.42227992 40:0.20621654 
3.773002372850719 1:0.70525777 2:0.42547098 3:0.5492357 4:0.12092813 5:0.14575091 6:0.3644917 7:0.52289611 8:0.48203143 9:0.33887553 10:0.53906029 11:0.70789069 12:0.34585038 13:1 14:0.66816145 15:0.46059757 16:0.52555025 17:0.34823242 18:0.72106957 19:0.6239782 20:0.16466682 21:0.7886253 22:0.28722373 23:0.44891283 24:0.5118168 25:0.68639547 26:0.37750083 27:0.32129711 28:0.47829509 29:0.53007358 30:0.45108557 31:0.4470087 32:0.46278706 33:0.725963 34:0.60148591 35:0.28597915 36:0.41471955 37:0.66374713 38:0.73361617 39:0.23081754 40:0.51992232 
1.932660877522044 1:0.69595295 2:0.38280308 3:0.81545782 4:0.57758433 5:0.34992507 6:0.65877903 7:0.58005804 8:0.72337449 9:0.79444641 10:0.21041226 11:0.54518783 12:0.43494341 13:0.28700602 14:0.74567336 15:0.44419545 16:0.27804187 17:0.38768435 18:0.64144486 19:0.55368149 20:0.35821122 21:0.25532204 22:0.76407701 23:0.54337895 24:0.31337819 25:0.77410638 26:0.53919631 27:0.56918389 28:0.63444436 29:0.90651715 30:0.40123296 31:0.28026992 32:0.92410028 33:0.39379439 34:0.35501024 35:0.24666817 36:0.62637389 37:0.43493134 38:0.82131904 39:0.38127851 40:0.17363071 
8.223085574396769 1:0.37183899 2:0.65003878 3:0.56668252 4:0.37305138 5:0.58953273 6:0.28356862 7:0.20706348 8:0.36596283 9:0.39224532 10:0.7244435 11:0.54572797 12:0.22946088 13:0.15807573 14:0.5516879 15:0.74780369 16:0.44891748 17:0.55849254 18:0.67632741 19:0.8672986 20:0.23130481 21:0.80243319 22:0.45434439 23:0.44757026 24:0.25381622 25:0.54381311 26:0.78512686 27:0.27180493 28:0.57177752 29:0.6461643 30:0.72180974 31:0.46759486 32:0.83794624 33:0.61290228 34:0.6887961 35:0.35418466 36:0.4533619 37:0.68735296 38:0.87760901 39:0.27820703 40:0.33412081 
0.6463445871020734 1:0.20108518 2:0.57161659 3:0.62788904 4:0.525141 5:0.51273364 6:0.51519853 7:0.47931275 8:0.82444686 9:0.29225457 10:0.45543581 11:0.28897452 12:0.63635182 13:0.25774434 14:0.58124584 15:0.57228035 16:0.58395064 17:0.23985641 18:0.28425133 19:0.7784763 20:0.64681071 21:0.26302537 22:0.31232879 23:0.61054623 24:0.35945994 25:0.419651 26:0.83428031 27:0.45684108 28:0.43868837 29:0.77544016 30:0.4365007 31:0.33502361 32:0.32967216 33:0.48874483 34:0.08096794 35:0.41431162 36:0.25459465 37:0.55735612 38:0.69654542 39:0.24812062 40:0.1567006 
3.131718378128524 1:0.63659519 2:0.58277184 3:0.63106436 4:0.38886994 5:0.28629005 6:0.45982286 7:0.29844564 8:0.47257802 9:0.60008526 10:0.66906559 11:0.61898333 12:0.206466 13:0.45717263 14:0.52332342 15:0.66277122 16:0.92312104 17:0.023490302 18:0.43791246 19:0.46515179 20:0.63966399 21:0.54574901 22:0.88328373 23:0.45683971 24:0.45584059 25:0.095262863 26:0.31539816 27:0.28396487 28:0.59713817 29:0.68100131 30:0.55603367 31:0.18718594 32:0.35753077 33:0.61589235 34:0.5630253 35:0.42772681 36:0.70285803 37:0.58684647 38:0.5508067 39:0.72658116 40:0.72925031 
0.2041795401340627 1:0.47149715 2:0.32553163 3:0.79440635 4:0.47618723 5:0.54026109 6:0.62908256 7:0.42450249 8:0.39305902 9:0.57524109 10:0.52904838 11:0.43718898 12:0.51111871 13:0.063240878 14:0.68783033 15:0.43314704 16:0.74028122 17:0.22930603 18:0.59267926 19:0.23686039 20:0.42706394 21:0.37287456 22:0.55078924 23:0.71889418 24:0.44290251 25:0.67381585 26:0.47447315 27:0.25342035 28:0.25446987 29:0.71109039 30:0.15540543 31:0.017470038 32:0.76718652 33:0.78143686 34:0.78352952 35:0.67842644 36:0.48923519 37:0.2524578 38:0.74362123 39:0.39788491 40:0.40598547 
2.266762293262984 1:0.27424294 2:0.60657179 3:0.37018827 4:0.63790858 5:0.36242521 6:0.43500438 7:0.59888315 8:0.71667987 9:0.79485029 10:1 11:0.23498914 12:0.4543232 13:0.20310968 14:0.72425324 15:0.49313378 16:0.70480382 17:0.22667679 18:0.59027052 19:0.79315358 20:0.56810188 21:0.33895636 22:0.45538384 23:0.79359716 24:0.32338488 25:0.018609926 26:0.6683017 27:0.22121191 28:0.7080332 29:0.61613822 30:0.1775555 31:0.35393631 32:0.51646942 33:0.64286774 34:0.69325584 35:0.7263639 36:0.72441792 37:0.44792795 38:0.56879097 39:0.78990495 40:0.71757948 
0.3073562644656285 1:0.27593145 2:0.64151752 3:0.40108922 4:0.62840313 5:0.47046366 6:0.63173199 7:0 8:0.33828467 9:0.38639086 10:0.70205247 11:0.85931742 12:0.78613824 13:0.50032616 14:0.64297038 15:0.65746516 16:0.40531957 17:0.11372112 18:0.64241064 19:0.48217592 20:0.45721805 21:0.57567167 22:0.40164188 23:0.38395458 24:0.47558233 25:0.69954306 26:0.75857991 27:0.39168888 28:0.32869893 29:0.61978096 30:0.042966612 31:0.38387194 32:0.34249705 33:0.64252937 34:0.50577736 35:0.40610522 36:0.57159835 37:0.041365884 38:0.73550397 39:0.25114176 40:0.1931745 
0.5101090189633846 1:0.25305417 2:0.49357095 3:0.20449026 4:0.75899661 5:0.45288843 6:0.65135604 7:0.26150975 8:0.60561955 9:0.45288721 10:0.49540657 11:0.69387054 12:0.71028417 13:0.5307132 14:0.7350902 15:0.62588781 16:0.66790801 17:0.23540582 18:0.47194082 19:0.30914763 20:0.24992535 21:0.22847611 22:0.44787216 23:0.39572856 24:0.42346004 25:0.79445338 26:0.64697582 27:0.45754224 28:0.2102434 29:0.60039234 30:0.21537459 31:0.31784961 32:0.32860774 33:0.67490965 34:0.53229791 35:0.43621933 36:0.59369332 37:0.010968839 38:0.55819315 39:0.22772874 40:0.62535244 
3.220875363635153 1:0.2580319 2:0.29265526 3:0.30007198 4:0.30167365 5:0.62727141 6:0.63231289 7:0.23971294 8:0.67956316 9:0.39518523 10:0.73844141 11:0.38314575 12:0.32732028 13:0.3322629 14:0.36820984 15:0.20847893 16:0.39550683 17:0.67022383 18:0.82044357 19:0.35237142 20:0.71694779 21:0.59026295 22:0.59283704 23:0.52104902 24:0.10129671 25:0.41134059 26:0.35376698 27:0.52725554 28:0 29:0.69785172 30:0.13123687 31:0.83820075 32:0.71058327 33:0.18624945 34:0.70674509 35:0.49520221 36:0 37:0.41191098 38:0.66758466 39:0.53061187 40:0.01299373 
1.766381173947043 1:0.3907142 2:0.75645888 3:0.30056658 4:0.3587307 5:0.31638885 6:0.56984192 7:0.59996402 8:0.30836445 9:0.23048173 10:0.52931851 11:0.24840276 12:0.41895205 13:0.50268888 14:0.44941315 15:0.25384369 16:0.51643074 17:0.15264872 18:0.44135168 19:0.047359247 20:0.5449366 21:0.38281554 22:0.36846209 23:0.41390026 24:0.26302683 25:0.49245703 26:0.80946243 27:0.79900187 28:0.50906938 29:0.64385843 30:0.41649565 31:0.56173652 32:0.6621269 33:0.20551205 34:0.69160128 35:0.4106209 36:0.98335844 37:0.55262417 38:1 39:0.49715543 40:0.2395954 
0.4559451314359265 1:0.65608048 2:0.80911112 3:0.63322586 4:0.43903878 5:0.85456669 6:0.32806084 7:0.36263305 8:0.53569549 9:0.50096661 10:0.4693267 11:0.37658244 12:0.22694004 13:0.59697896 14:0.43555802 15:0.24757114 16:0.56731147 17:0.32115585 18:0.70690215 19:0.49463141 20:0.2120132 21:0.61796743 22:0.45108423 23:0.43532252 24:0.22626856 25:0.58550143 26:0.41577831 27:0.31649649 28:0.30500522 29:0.68314916 30:0.50449741 31:0.2613304 32:0.35548878 33:0.48774543 34:0.76937783 35:0.49304193 36:0.76149791 37:0.71890223 38:0.75161684 39:0.46188828 40:0.48734877 
1.840662614814395 1:0.94092351 2:0.74625236 3:0.55674434 4:0.27740702 5:0.61491716 6:0.41613394 7:0.4283908 8:0.27588248 9:0.66329509 10:0.33153102 11:0.9989804 12:0.36276013 13:0.14595763 14:0.39894331 15:0.48188093 16:0.50274301 17:0.50277728 18:0.57652158 19:0.61987525 20:0.53277153 21:0.42303261 22:0.51837856 23:0.90345991 24:0.48324385 25:0.51262242 26:0.54324377 27:0.33033285 28:0.14434876 29:0.71071047 30:0.47093236 31:0.58742279 32:0.47579327 33:0.19246492 34:0.61403537 35:0.66340858 36:0.53205663 37:0.31366819 38:0.090545304 39:0.24326707 40:0.65151316 
3.590856431963665 1:0.68838221 2:0.065746695 3:0.56771928 4:0.68061888 5:1 6:0.39739969 7:0.65412897 8:0.74174517 9:0.99273944 10:0.31239328 11:0.49301943 12:0.27377257 13:0.65007341 14:0.45060977 15:0.67555577 16:0.5312714 17:0.35131317 18:0.45532703 19:0.50367302 20:0.46217766 21:0.59599358 22:0.62739497 23:0.34800479 24:0.42362365 25:0.59408623 26:0.46611646 27:0.37665662 28:0.39286131 29:0.57570022 30:0.53934115 31:0.37675226 32:0.13983425 33:0.60158336 34:0.51561767 35:0.84846431 36:0.38124892 37:0.4164871 38:0.66566086 39:0.35385412 40:0.24647835 
1.20492885511566 1:0.27741286 2:0.36775783 3:0.55079144 4:0.24127416 5:0.25587577 6:0.83348686 7:0.41358459 8:0.63067937 9:0.49854058 10:0.57718509 11:0.57576823 12:0.63678044 13:0.59493256 14:0.74637491 15:0.51663524 16:0.64490426 17:0.54512477 18:0.56232965 19:0.80004287 20:0.33094552 21:0.56659049 22:0.25671479 23:0.65706301 24:0.40264481 25:0.35574695 26:0.57168829 27:0.40517265 28:0.47583848 29:0.58876997 30:0.50585532 31:0.72981215 32:0.61973554 33:0.52667874 34:0.59073269 35:0.58104748 36:0.64081907 37:0.39967903 38:0.61130768 39:0.18157338 40:0.62439162 
0.417918804577993 1:0.52102172 2:0.23419675 3:0.27728191 4:0.17449112 5:0.47537398 6:0.90601522 7:0.58815646 8:0.76042813 9:0.66258329 10:0.3974238 11:0.59004784 12:0.49612451 13:0.33802041 14:0.56430227 15:0.5669772 16:0.38852698 17:0.81217933 18:0.97534436 19:0.50492305 20:0.55040938 21:0.7012459 22:0.3431617 23:0.6459536 24:0.69594878 25:0.63187593 26:0.54209477 27:0.38269347 28:0.3971428 29:0 30:0.51484859 31:0 32:0.88440216 33:0.73001915 34:0.57923973 35:0.033388216 36:0.7099219 37:0.68153101 38:0.65898997 39:0.49162239 40:0.87726468 
2.517321098803887 1:0.71655923 2:0.52877086 3:0.40126261 4:0.44198617 5:0.66898978 6:0.4307583 7:0.28698578 8:0.72838014 9:0.44867682 10:0.24802159 11:0.26042426 12:0.6838792 13:0.60837251 14:0.80408061 15:0.77275097 16:0.47019497 17:0.34121343 18:0.42110011 19:0.75150216 20:0.67533022 21:0.47759095 22:0.46739718 23:0.60858887 24:0.3123171 25:0.60671693 26:0.72336125 27:0.43847832 28:0.29707643 29:0.84028035 30:0.57419527 31:0.41675124 32:0.3923431 33:0.26035827 34:0.85375237 35:0.64874524 36:0.65234137 37:0.38428378 38:0.79729265 39:0.98936754 40:0.64232618 
0.6805516392141659 1:0.11243203 2:0.82971299 3:0.29077438 4:0.69416022 5:0.74315828 6:0.77675694 7:0.64619583 8:0.3968603 9:0.78534764 10:0.58724821 11:0.58829343 12:0.55600899 13:0.35122427 14:0.54576629 15:1 16:0.31930852 17:0.17301901 18:0.085354187 19:0 20:0.36749271 21:0.50709021 22:0.62861902 23:0.7552492 24:0.52656698 25:0.3456907 26:0.5675143 27:0.4339323 28:0.251028 29:0.87659329 30:0.41989377 31:0.40870339 32:0.921363 33:0.35070413 34:0.61630964 35:0.52575338 36:0.59292662 37:0.50842124 38:0.72463089 39:0.77025402 40:0.77964056 
0.05567999422664308 1:0.38586864 2:0.17546405 3:0.47030383 4:0.52384198 5:0.72935849 6:0.76510096 7:0.66386855 8:0.6485402 9:0.30533344 10:0.52962196 11:0.64909458 12:0.52042061 13:0.83153754 14:0.42310286 15:0.48981839 16:0.30281007 17:0.42282903 18:0.42902276 19:0.58895564 20:0.38401642 21:0.52271837 22:0.58507371 23:0.50084275 24:0.5425753 25:0.63816613 26:0.42124447 27:0.3460339 28:0.49138129 29:0.79182106 30:0.48797527 31:1 32:0.638363 33:0.70015913 34:0.46624163 35:0.51886213 36:0.71520501 37:0.42864171 38:0.69433635 39:0.31214291 40:0.73382133 
10 1:0.90658504 2:0.65203816 3:0.39602858 4:0.77865541 5:0.0064856079 6:0.78496164 7:0.6280396 8:0.68622065 9:0.27826911 10:0.50866377 11:0.6934762 12:0.48199767 13:0.48961458 14:0.64647537 15:0.52048218 16:0.43901965 17:0.68290579 18:0.5518716 19:0.40304497 20:0.81566286 21:0.48225847 22:0.68772787 23:0.73553866 24:0.55069435 25:0.7658006 26:0.68064272 27:0.32271385 28:0.59816825 29:0.75875527 30:0.66653842 31:0.48438072 32:0.52552146 33:0.28044549 34:0.60165584 35:0.51363158 36:0.49180642 37:0.11293302 38:0.17996067 39:0.3840242 40:0.23487844 
0.2499207630202337 1:0.32998627 2:0.57756829 3:0.33042029 4:0.068450511 5:0.56786078 6:0.3545419 7:0.49379483 8:0.30639002 9:0.43485922 10:0.7077477 11:0.48066336 12:0.58638531 13:0.43645746 14:0.60180438 15:0 16:0.71606416 17:0.47896329 18:0.21661872 19:0.51659369 20:0.55805004 21:0.47523427 22:0.38683397 23:0.20135474 24:0.46190149 25:0.615224 26:0.53694129 27:0.55526429 28:0.49222791 29:0.88371015 30:0.43172461 31:0.42395973 32:0.55415207 33:0.32110462 34:0.35142839 35:0.43349758 36:0.96090049 37:0.49561426 38:0.82904845 39:0.81247723 40:0.62588155 
1.072118378663501 1:0.86178476 2:0.23083794 3:0.28650293 4:0.40730593 5:0.62997317 6:0.87538415 7:0.45835102 8:0.27658981 9:0.28321424 10:0.56068712 11:0.53763455 12:0.2057499 13:0.099067084 14:0.77640009 15:0.54515415 16:0.37348685 17:0.69899207 18:0.24282047 19:0.37337694 20:0.31754348 21:0.54127717 22:0.67590147 23:0.65571284 24:0.36518919 25:0.49109352 26:0.5097785 27:0.42990702 28:0.31050619 29:0.62065041 30:0.25509483 31:0.54469472 32:0.20154344 33:0.7358821 34:0.69084352 35:0.72574723 36:0.56824934 37:0.25466821 38:0.83121806 39:0.44752565 40:0.410615 
0.2621894079746778 1:0.36307073 2:0.15849957 3:0.59604812 4:0.6361056 5:0.45744231 6:0.46466604 7:0.68276644 8:0.088274561 9:0.27108982 10:0.4504492 11:0.69167882 12:0.52934754 13:0.38163325 14:0.44723353 15:0.28920239 16:0.73821402 17:0.51985466 18:0.57425058 19:0.68495739 20:0.600398 21:0.73258656 22:0 23:0.55592263 24:0.38723615 25:0.3520014 26:0.32666519 27:1 28:0.23313391 29:0.56359076 30:0.87437248 31:0.1724471 32:0 33:0.7296679 34:0.51731735 35:0.44128478 36:0.71714079 37:0.0046986714 38:0.85194802 39:0.46058795 40:0.39297697 
0.6882461631266482 1:0.84274429 2:0.48347753 3:0.68650651 4:0.8715452 5:0.46767402 6:0.51462716 7:0.48234975 8:0.57290125 9:0.47130352 10:0.80962169 11:0.4079445 12:0.63600457 13:0.50015765 14:0.8575241 15:0.50385594 16:0.44580477 17:0.30322334 18:0.90294266 19:0.47783801 20:0.32828131 21:0.63256919 22:0.36927432 23:0.5804857 24:0.5259003 25:0.33123133 26:0.41816092 27:0.51677144 28:0.47910774 29:0.62062424 30:0.4218224 31:0.77900457 32:0.22044587 33:0.76912439 34:0.41482162 35:0.88812059 36:0.58208179 37:0.39852789 38:0.57001674 39:0.28693041 40:0.6519292 
-2.833644484777428 1:0.3928847 2:0.44584218 3:0.31043458 4:0.15174426 5:0.40737438 6:0.35783169 7:0.54898506 8:0.29302567 9:0.41531834 10:0.56493229 11:0.30921453 12:0.094278373 13:0.80334401 14:0.46328759 15:0.51850796 16:0.51517808 17:0.53206694 18:0.714719 19:0.23427801 20:0.31130499 21:0.37460038 22:0.4878633 23:0.32033908 24:0.52249098 25:0.67445749 26:0.66890657 27:0.22833794 28:0.24254131 29:0.64677954 30:0.58976799 31:0.3387832 32:0.33166784 33:0.53638613 34:0.48780099 35:0.69930291 36:0.54037559 37:0.58788991 38:0.08317215 39:0.65749955 40:0.11445149 
-10 1:0.67645717 2:0.63852638 3:0.29944828 4:0.58119923 5:0.38281879 6:0.29156289 7:0.37562501 8:0.65932941 9:0.37492007 10:0.73434073 11:0.47181877 12:0.27820173 13:0.24067385 14:0.94667691 15:0.55091822 16:0.35480767 17:0.49324271 18:0.44990611 19:0.63092834 20:0.40068302 21:0.32344726 22:0.41242936 23:0.49015182 24:0.63964128 25:1 26:0.44237745 27:0.36313584 28:0.55234379 29:0.66896814 30:0.35351992 31:0.22936116 32:0.59368533 33:0.46550688 34:0.70870769 35:0.42335439 36:0.62012386 37:0.66710168 38:0.19819695 39:0.58291489 40:0.12007597 
-3.267763162191141 1:0.53044909 2:0.29881534 3:0.2435212 4:0.5164367 5:0.53688103 6:0.44850263 7:0.49206972 8:0.31921843 9:0.58910847 10:0.57994765 11:0.23698883 12:0.84152043 13:0.70484352 14:0.40770417 15:0.38972551 16:0.36117643 17:0.64983761 18:0.64170754 19:0.55691504 20:0.25869021 21:0.47650909 22:0.61021799 23:0.3721292 24:0.47931775 25:0.42226541 26:0.64268202 27:0.44677719 28:0.42688769 29:0.6499818 30:0.39200556 31:0.25269076 32:0.4553296 33:0.49776724 34:0.5749293 35:0.84381956 36:0.58123654 37:0.47433782 38:0 39:0.47612801 40:0.053099155 
-3.160614357954888 1:0.18233725 2:0.59106785 3:0.65329897 4:0.50869983 5:0.33850214 6:0.75467062 7:0.66501641 8:0.74787766 9:0.62101215 10:0.47042319 11:0.58890373 12:0.5587281 13:0.38737768 14:0.44112009 15:0.53561348 16:0.21911807 17:0.15681781 18:0.4960759 19:0.75665188 20:0.42894816 21:0.50769323 22:0.30698356 23:0.36090782 24:0.29200998 25:0 26:0.80596268 27:0.38777819 28:0.35825542 29:0.6288287 30:0.35645467 31:0.45611802 32:0.64112318 33:0.61397952 34:0.34866875 35:0.79174221 36:0.8371473 37:0.60587859 38:0.32247427 39:0.55737239 40:0.071478046 
-3.574113533478358 1:0.88075548 2:0.29436862 3:0.49607512 4:0.64103818 5:0.45880973 6:0.73456395 7:0.32739753 8:0.52138239 9:0.42102006 10:0.44452864 11:0.49865991 12:0.49248978 13:0.14878367 14:0.55554444 15:0.6013273 16:0.62309027 17:0.55510098 18:0.53255719 19:0.50586176 20:0.48617473 21:0.91404468 22:0.73759222 23:0.52899957 24:0.34654886 25:0.6373502 26:0.55274004 27:0.43865427 28:0.49357423 29:0.80428314 30:0.69870096 31:0.58889329 32:0.44143346 33:0.49547398 34:0.79319042 35:0.26913169 36:0.77258247 37:0.82559961 38:0.04826656 39:0.47844058 40:0.182246 
-4.580675752982525 1:0.55736387 2:0.4486379 3:0.62155396 4:0.41111025 5:0.23513152 6:0.76764739 7:0.37509793 8:0.65023303 9:0.39584649 10:0.44021147 11:0.79666907 12:0.34058702 13:0.42352948 14:0.7683773 15:0.51052183 16:0.72683173 17:0.36706004 18:0.74447608 19:0.54331231 20:0.53485638 21:0.63060164 22:0.62345755 23:0.63539648 24:0.23438358 25:0.37353599 26:0.8009488 27:0.50031 28:0.34532711 29:0.68587464 30:0.31065696 31:0.5654254 32:0.76849496 33:0.67339534 34:0.39525363 35:1 36:0.74001312 37:0.67121494 38:0.43218431 39:0.53640443 40:0.19403893 
-5.569043640048699 1:0.62587154 2:0.35476243 3:0.58714557 4:0.48221865 5:0.49472117 6:0.82942712 7:0.47834158 8:0.5039081 9:0.64078295 10:0.53757411 11:0.73776072 12:0.5733161 13:0.49335372 14:0.50341254 15:0.69306064 16:0.71904731 17:0.32379714 18:0.65578026 19:0.48179501 20:0.32230297 21:0.48236918 22:0.34977242 23:0.53498769 24:0.30182153 25:0.63690639 26:0.59466559 27:0.18926693 28:0.60431242 29:0.58530021 30:0.72136384 31:0.63613397 32:0.61572939 33:0.43461797 34:0.34614712 35:0.54871649 36:0.58275175 37:0.67160386 38:0.030743908 39:0.46133298 40:0.22752509 
-2.540131966850255 1:0.7717123 2:0.6991815 3:0.39838341 4:0.5991928 5:0.58498001 6:0 7:0.89377117 8:0.85723126 9:0.27121547 10:0 11:0.26872849 12:0.35515037 13:0.36167002 14:0.6981616 15:0.7070511 16:0.45700142 17:0.33580211 18:0.68550414 19:0.7167961 20:0 21:0.34947082 22:0.36738682 23:0.58614022 24:0.6397801 25:0.53519475 26:0.51645023 27:0.77936649 28:0.34430566 29:0.5988844 30:0.64590687 31:0.45756978 32:0.95145506 33:0.9042232 34:0.78863972 35:0.078622468 36:0.2199675 37:0.041372593 38:0.50990349 39:0.71405494 40:0.25419015 
-8.455662196460253 1:0.71489662 2:0.50994259 3:0.5015018 4:0.38450289 5:0.50595367 6:0.53495729 7:0.16423112 8:0.62090945 9:0.13368966 10:0.49009904 11:0.83596325 12:0.1375657 13:0.5267688 14:0.4613733 15:0.71426731 16:0.59012431 17:0.44532618 18:0.60656881 19:0.57461196 20:0.62959105 21:1 22:0.56799656 23:0.5244047 24:0 25:0.3269372 26:0.74599975 27:0.77300835 28:0.13750929 29:0.69870871 30:0.73343104 31:0.73595864 32:0.77122658 33:1 34:0.82041907 35:0.47697735 36:0.6100992 37:0.34842297 38:0.87356305 39:0.71303791 40:0.31424239 
-4.919993678895467 1:0.63179666 2:0.65173888 3:0.61374182 4:0.35080466 5:0.50490546 6:0.69442952 7:0.44193733 8:0.64183122 9:0.74339277 10:0.79019421 11:0.56441623 12:0.42447552 13:0.64862126 14:0.45505971 15:0.48314708 16:0.62743509 17:0.33595526 18:0 19:0.5780018 20:0.3247475 21:0.4503727 22:0.49376523 23:0.92213893 24:0.39557511 25:0.41796261 26:0.65511978 27:0.81021786 28:0.89316326 29:0.61755449 30:0.63923794 31:0.51644951 32:0.88986945 33:0.76860261 34:0.75254101 35:0.37304625 36:0.10380461 37:0 38:0.37096334 39:0.77160358 40:0.33534467 
-0.3989221101717018 1:0 2:0.477889 3:0.39301589 4:0.49121168 5:0.23662513 6:0.64451611 7:0.28205162 8:0.33625615 9:0.69045693 10:0.57213628 11:0.65203291 12:0.15072301 13:0.81430435 14:0.73627186 15:0.3626281 16:0.91753042 17:0.34382156 18:0.23356949 19:0.90714377 20:0.58188206 21:0.60120052 22:0.69239551 23:0.60746723 24:0.5871104 25:0.43615517 26:0.66175997 27:0.71198392 28:0.14981523 29:0.69460917 30:0.59014535 31:0.5118205 32:0.86416197 33:0.90875876 34:0.75920445 35:0.46335381 36:0.33635229 37:0.069887422 38:0.35168672 39:0.78944516 40:0.32174441 
