svm_type c_svc
kernel_type rbf
gamma 0.09
nr_class 3
total_sv 43
rho 0.0777908 0.285124 0.160367
label 181 182 19
nr_sv 13 12 18
SV
10 9.003561502754286 1:0.57326084 2:0.48280716 3:0.6401245 4:0.19563146 5:0.42825267 6:0.81669176 7:0.45582393 8:0.33230153 9:0.16573788 10:0.1833943 11:0.24284112 12:0.54308993 13:0.5806464 14:0.63045806 15:0.81326288 16:0.17452635 
2.575768623747894 0 1:0.5048725 2:0.49586833 3:0.5930813 4:0.50686538 5:0.38796666 6:0.67088479 7:0.56681275 8:0.75379884 9:0.55890799 10:0.53770846 11:0.62559843 12:0.28276011 13:0.99685764 14:0.55620897 15:0.88249928 16:0.094766676 
10 2.707241694284702 1:0.57785451 2:0.43669003 3:0.70067912 4:0.51201856 5:0.49195194 6:0.51410604 7:0.56263936 8:0.74869823 9:0.51001209 10:0.53647089 11:0.59505385 12:0.34623238 13:0.89111847 14:0.56888694 15:0.82285798 16:0.098044194 
5.877277102693342 0 1:0.38384467 2:0.45712069 3:0.52120006 4:0.19267194 5:0.33981898 6:0.78448725 7:0.39666247 8:0.22279906 9:0.00069694186 10:0.1288825 11:0.27693754 12:0.5477069 13:0.51161098 14:0.69874436 15:0.78783703 16:0.16073652 
9.981243881302104 0 1:0.44807273 2:0.46380034 3:0.67153502 4:0.62788039 5:0.41823742 6:0.55447364 7:0.58479011 8:0.68770558 9:0.58049726 10:0.59849364 11:0.74196607 12:0.34939229 13:0.85718691 14:0.65931267 15:0.88888925 16:0.10039035 
0 2.873675703451023 1:0.75006521 2:0.34879386 3:0.53473049 4:0.27585676 5:0.40868419 6:0.4338519 7:0.43428665 8:0.43153018 9:0.98632586 10:0.70921463 11:0.44734496 12:0.60322261 13:0.90268528 14:0.65284902 15:0.89880502 16:0.13119122 
0 0.06392461007846309 1:0.79478055 2:0.42385745 3:0.45352265 4:0.34990516 5:0.63449144 6:0.39308804 7:0.72676736 8:0.49077293 9:0.090085022 10:0.40219396 11:0.66477591 12:0.49676999 13:0.20199215 14:0.80871326 15:0.81031567 16:0.057588153 
2.533173340353984 0 1:0.95017672 2:0.66184521 3:0.32589862 4:0.41714278 5:0.50059235 6:0.42506129 7:0.67685562 8:0.61641777 9:0.059695814 10:0.3286325 11:0.58122051 12:0.4962227 13:0.25088516 14:0.74739438 15:0.76127476 16:0.03805279 
0 4.204473776365282 1:0.53814608 2:0.51350439 3:0.48464403 4:0.44407889 5:0.25580803 6:0.53554547 7:0.45765996 8:0.64000607 9:0.76962286 10:0.62346125 11:0.35510868 12:0.83812356 13:0.034756113 14:0.55722684 15:0.8360036 16:0.051072307 
7.659408066359564 0 1:0.48337355 2:0.74057859 3:0.39727908 4:0.50963753 5:0.21704985 6:0.59856689 7:0.36443698 8:0.62746602 9:0.65510678 10:0.4945212 11:0.28705087 12:0.82305712 13:0.086005695 14:0.57330596 15:0.83456028 16:0.066262186 
5.12731611410693 0 1:0.61217785 2:0.7915768 3:0.28523073 4:0.80022764 5:0.67579538 6:0.72610068 7:0.34306514 8:0.25509232 9:0.58918518 10:0.33023813 11:0.30580238 12:0.6949954 13:0.65486062 14:0.67711437 15:0.84759438 16:0.11433891 
0 1.056573129365999 1:0.62435126 2:0.80852795 3:0.29572064 4:0.79311842 5:0.68106091 6:0.71761066 7:0.35681435 8:0.25784549 9:0.59171367 10:0.32473248 11:0.30631456 12:0.70317668 13:0.6565975 14:0.67757553 15:0.84836513 16:0.11574866 
0 5.279624824667737 1:0.54119909 2:0.096055984 3:0.46376231 4:0.76314998 5:1 6:0.75793558 7:0.21984993 8:0.18785268 9:0.78101701 10:0.46597359 11:0.55281591 12:0.73433936 13:0.43461591 14:0.6482951 15:0.93123615 16:0.068320915 
-0 0.2868275612959132 1:0.60089403 2:0.49924707 3:0.30877942 4:0.46903279 5:0.38769642 6:0.47096872 7:0.42448261 8:0.45205984 9:0.40335435 10:0.46284378 11:0.46422318 12:1 13:0.73125815 14:0.86354792 15:0.21510139 16:0.49192718 
-0 6.2645965935214 1:0.57868707 2:0.47013709 3:0.5082745 4:0.46987921 5:0.41514212 6:0.36886486 7:0.46848038 8:0.44174346 9:0.45886895 10:0.46412382 11:0.45077559 12:0.91162896 13:0.78769922 14:0.89552093 15:0.20777503 16:0.54101259 
-10 3.068574396981008 1:0.48079976 2:0.68087929 3:0.44781861 4:0.88637429 5:0.25953522 6:0.80405623 7:0.35144973 8:0.92009997 9:0.15033817 10:0.47890121 11:0.42558631 12:0.54560244 13:0.62703735 14:0.4419184 15:0.60320979 16:0.2453514 
-0 3.749646435061853 1:0.27273935 2:0.21248475 3:0.43684316 4:0.6752007 5:0.43750945 6:0.64982224 7:0.53336126 8:0.6666131 9:0.83665091 10:0.33602479 11:0.59205329 12:0.48541364 13:0.32479459 14:0.75880176 15:0.12648599 16:0.3834776 
-4.955753601718669 0 1:0.89771485 2:0.49399316 3:0.75359064 4:0.33459672 5:0.44163895 6:0.61633915 7:0.26832691 8:0.30374289 9:0.57272691 10:0.33960634 11:0.61700737 12:0.67073274 13:0.59817743 14:0.79763806 15:0.42802292 16:0.29370436 
-0 0.09978465557228229 1:0.74538058 2:0.43123695 3:0.61672288 4:0.43185079 5:0.51000428 6:0.71777618 7:0.2247791 8:0.48680931 9:0.69495183 10:0.35026288 11:0.64165562 12:0.54005516 13:0.42389613 14:0.70391887 15:0.15935437 16:0.37948358 
-7.841286748659785 0 1:0.36329451 2:1 3:0.23915295 4:0.81477696 5:0.11581711 6:0.76167107 7:0.39252862 8:0.73833805 9:0.35078073 10:0.33535773 11:0.31209198 12:0.25950745 13:0.7629922 14:0.58708924 15:0.50267935 16:0.38437104 
-0 5.616522635400959 1:0.50612807 2:0.69985771 3:0.048595164 4:0.67332149 5:0.27264756 6:0.65325415 7:0.53425115 8:0.39465138 9:0.7649051 10:0.251405 11:0.27179658 12:0.34479403 13:0.62210661 14:0.81379098 15:0.20849335 16:0.46117881 
-10 8.994640816072129 1:0.6520189 2:0.52197212 3:1 4:0.61518651 5:0.5288738 6:0.75833905 7:0.27583021 8:0.63123393 9:0.19592884 10:0.24587965 11:0.50195175 12:0.46855062 13:0.67314333 14:0.46945685 15:0.56962609 16:0.29883018 
-9.323895891536566 5.122960692870038 1:0.91576523 2:0.4367322 3:0.70777661 4:0.15950312 5:0.25729972 6:0.62431556 7:0.32018217 8:0.206295 9:0.42733407 10:0.50235945 11:0.54956144 12:0.84446442 13:0.8005197 14:0.79579347 15:0.45627895 16:0.30742586 
-10 0 1:0.37966278 2:0.43522844 3:0.57448906 4:0.36167836 5:0.34682909 6:0.54385448 7:0.57324219 8:0.46186197 9:0.59485352 10:0.55151945 11:0.68756247 12:0.52782059 13:0.56316942 14:0.78528732 15:0.42259446 16:0.18904789 
-1.63325088664879 0 1:0.64656425 2:0.23147245 3:0.68877214 4:0.52695161 5:0.61054969 6:0.7562958 7:0.11478642 8:0.86476463 9:0.67326832 10:0.22791815 11:0.71248782 12:0.38836509 13:0.32583544 14:0.45576644 15:0.35991776 16:0.19582699 
-4.845153198613324 -1.554005615263165 1:0.56061906 2:0.42069107 3:0.26241341 4:0 5:0.61952806 6:0.7149958 7:0.61793768 8:0.71882087 9:0.57928592 10:0.051448122 11:0.44101202 12:0.79170966 13:0.55744994 14:0.6633656 15:0.95413524 16:0.90596384 
-1.319392470576864 -0 1:0.53263307 2:0.42349762 3:0.53392041 4:0.09448614 5:0.64207125 6:0.69522303 7:0.13508217 8:0.61254936 9:0.32758436 10:0.99920774 11:0.27928188 12:0.43891847 13:0.41885453 14:1 15:0.74367589 16:0.91186702 
-0 -0.3713583681695608 1:0.52961117 2:0.41869986 3:0.52832818 4:0.087319925 5:0.63932228 6:0.70833945 7:0.12487662 8:0.62289405 9:0.34278062 10:1 11:0.28507903 12:0.43664643 13:0.41331971 14:0.99498743 15:0.73928142 16:0.91138387 
-0.7380843189836297 -0 1:0.88615704 2:0.002740578 3:0.43830109 4:0.98027015 5:0 6:0.83945447 7:0.43931282 8:0.54462171 9:0.47953516 10:0.38332438 11:0.37647358 12:0.69001359 13:0.55621451 14:0.85993278 15:0.93289006 16:0.89888722 
-0 -1.954173910821375 1:0.88205981 2:0.025471929 3:0.43697903 4:0.97213399 5:0.012912992 6:0.84034288 7:0.44340965 8:0.53951353 9:0.49072984 10:0.36985072 11:0.38020912 12:0.69908315 13:0.55132687 14:0.8581965 15:0.93039143 16:0.89873028 
-0.3398740246354544 -1.942553873459948 1:0.47921169 2:0.68787295 3:0.58868182 4:0.17685373 5:0.26745898 6:0.42121232 7:0.1342431 8:0.33874702 9:0.81473619 10:0.067129545 11:0.83781713 12:0.57104611 13:0.4690319 14:0.67743975 15:0.93712509 16:0.91784292 
-0.5256366407917276 -1.953437875861707 1:0.37066916 2:0.45474368 3:0.80020905 4:0.69125396 5:0.68378478 6:0.95555484 7:0.57056385 8:0.41115537 9:0.54629153 10:0.54858047 11:0.50447571 12:0.64568371 13:0.40376973 14:0.91484642 15:0.74308711 16:0.88833088 
-4.513302320897913 -10 1:0.67168438 2:0.64015818 3:0.53246683 4:0.68863207 5:0.34054863 6:0.79825246 7:0.34332636 8:0.25922501 9:0.32820487 10:0.55918533 11:0.60958517 12:0.66424239 13:0.4436945 14:0.6378932 15:0.53354609 16:0.77389556 
-0 -0.8970207418424538 1:0 2:0.23408082 3:0.26676041 4:0.43786618 5:0.57820815 6:0.64532578 7:0.54250467 8:0.65379316 9:0.32781744 10:0.52840358 11:0.61002111 12:0.75190347 13:0.61273605 14:0.0096603604 15:0.53087413 16:0.79055738 
-0 -5.74546080557693 1:0.57547313 2:0.25630873 3:0.82288224 4:0.41175449 5:0.36988989 6:0.58087343 7:0.5961532 8:0.4162364 9:0.44032845 10:0.55175889 11:0.36750743 12:0.88254631 13:0.6104514 14:0.17759439 15:0.58467078 16:0.7679674 
-0.04053355157224294 -0 1:0.6379295 2:0.64593637 3:0.74865425 4:0.57407832 5:0.69871438 6:0.65988958 7:0.47876629 8:0.4396438 9:0.056038566 10:0.62698406 11:0.49441272 12:0.98364031 13:0.61910844 14:0.14548911 15:0.70548618 16:0.74896532 
-0 -3.179353911099581 1:0.78381807 2:0.33021489 3:0.41703102 4:0.72976983 5:0.60032898 6:0.21118434 7:0.34442088 8:0.40670508 9:0.56845951 10:0.26222458 11:0.24657747 12:0.35566917 13:0.43756926 14:0.084850147 15:0.52535361 16:0.7160911 
-4.932841986388284 -0 1:0.32115689 2:0.046131942 3:0.34449008 4:0.80901349 5:0.4336012 6:0.42576161 7:0.28352195 8:0.11535193 9:0.493577 10:0.72725207 11:0.7145108 12:0.58050501 13:0.4559755 14:0.48794299 15:0.63850003 16:0.67505783 
-6.303706133261313 -1.725540407404469 1:0.76309443 2:0.46549615 3:0.82085657 4:0.50841355 5:0.81789547 6:0.50389636 7:0.47543034 8:0.49135682 9:0.69063145 10:0.45290363 11:0.058262043 12:0.53420496 13:0.50901246 14:0.1561695 15:0.63676745 16:0.69913566 
-1.630550595246737 -0 1:0.59542328 2:0 3:0.48936421 4:0.10173035 5:0.54443413 6:0.73840457 7:0.53839123 8:0.26240844 9:0.82459217 10:0 11:0.26972988 12:0.42322809 13:0.33910203 14:0.15637341 15:0.67892516 16:0.72391677 
-0 -0.3251336839367489 1:0.64943475 2:0.53130108 3:0.61837673 4:0.52275491 5:0.26191512 6:0.59084022 7:0.81978309 8:0.097318619 9:0.75747031 10:0.55382663 11:0.25069478 12:0.18443239 13:0.3835372 14:0.68721706 15:0.49946305 16:0.8329035 
-0 -2.626868529979861 1:0.71397007 2:0.63481778 3:0.03767046 4:0.41791975 5:0.64201677 6:0.19539644 7:0.67099375 8:0.39762774 9:0.42004097 10:0.7233429 11:0.24748689 12:0 13:0.34027049 14:0.78589678 15:0.52638084 16:0.80695564 
-0 -0.9286460633597814 1:0.24524662 2:0.472379 3:0.23579936 4:0.88418347 5:0.41198701 6:0.9647873 7:0.54948002 8:0.38357538 9:0.45922926 10:0.84173095 11:1 12:0.48844141 13:0.12246817 14:0.86352646 15:0.53210974 16:0.77260309 
