svm_type c_svc
kernel_type rbf
gamma 0.09
nr_class 2
total_sv 4
rho 0.316482
label 20 21
nr_sv 2 2
SV
10 1:0.47439596 2:0.031852264 
3.426125032689769 1:0.40698919 2:0 
-7.473398264642787 1:1 2:0.88778251 
-5.952726768046981 1:0 2:1 
