svm_type c_svc
kernel_type rbf
gamma 0.09
nr_class 40
total_sv 1098
rho -0.0530271 -0.176224 -0.181664 -0.189157 -0.199763 -0.124612 -0.364092 0.0926187 0.043429 0.0626813 0.00950292 -0.0153079 -0.085979 -0.0901284 0.074138 -0.132131 -0.258371 -0.240808 -0.20766 -0.399292 -0.448371 0.105495 -0.343349 -0.415644 -0.330192 -0.594197 -0.407562 -0.502704 -0.424822 -0.137164 -0.0606876 -0.25573 -0.169926 -0.368742 -0.123544 0.0157898 -0.00145686 -0.103097 -0.123119 0.0597914 -0.0435898 0.0558114 0.0199764 -0.0043236 0.0484784 0.251609 0.0171705 0.23583 0.0812254 0.11649 0.0413161 -0.0250179 0.152832 0.0019627 -0.171268 -0.0946619 -0.0321404 -0.193942 -0.158574 0.321766 -0.150531 -0.156884 -0.113586 -0.236022 -0.223682 -0.249087 -0.21174 0.131809 0.158014 -0.163793 0.187124 -0.201174 0.272317 0.140866 0.0841033 0.0405138 0.129031 -0.150419 -0.0249877 -0.18232 -0.190764 -0.103523 -0.0235258 0.0660243 0.0164689 -0.00304428 0.100626 -0.0818397 -0.0646898 -0.0770738 -0.0559674 -0.247334 -0.23153 -0.17296 -0.255589 -0.282359 0.107485 -0.274133 -0.331469 -0.209157 -0.379195 -0.317853 -0.389691 -0.268299 -0.132826 -0.0124359 -0.284265 0.0982494 -0.277241 0.0952712 -0.040066 -0.0126559 -0.00123734 -0.137022 0.0398246 0.0276796 0.0665313 0.0358675 0.177509 0.336261 0.179742 0.095713 -0.0181773 0.0690665 0.086562 0.0636895 0.162587 -0.128776 -0.107003 -0.0678715 -0.117525 -0.154534 0.254037 -0.203951 -0.19454 -0.112177 -0.24405 -0.222205 -0.221286 -0.180511 0.105415 0.18246 -0.180227 0.256369 -0.157001 0.0368811 0.161139 0.132033 0.0112301 0.161708 -0.135538 -0.0722792 -0.0785918 0.103062 0.214176 0.178974 0.052566 0.0312807 -0.00167359 0.0250795 0.0564846 0.0782332 -0.128073 -0.0632442 -0.0734188 -0.157024 -0.192678 0.22786 -0.197392 -0.269768 -0.149435 -0.24063 -0.209112 -0.281881 -0.196203 0.122522 0.0483359 -0.193418 0.180121 -0.211142 0.117239 0.180309 0.10649 0.00687026 0.0783325 0.00224957 0.0663772 0.264728 0.0572639 0.138315 0.382873 0.129506 0.0177182 0.070184 0.0640315 0.0131685 -0.184729 -0.0718812 0.00839707 -0.0856164 -0.128673 0.318976 -0.114406 -0.227441 -0.150678 -0.265418 -0.197355 -0.251352 -0.219689 0.0837537 0.0811662 -0.202061 0.207248 -0.224624 0.21416 -0.067285 0.0736159 0.0758169 0.118801 -0.0589261 0.255176 0.188344 0.118463 0.21354 0.110034 0.030221 0.0333079 0.115245 0.0955803 -0.0962964 -0.0276988 0.0210441 -0.165288 -0.14835 0.293543 -0.165328 -0.194958 -0.140973 -0.203278 -0.177733 -0.279686 -0.175794 0.0914439 0.193018 -0.15126 0.172852 -0.20231 0.233253 0.242768 0.205223 0.0944482 0.133429 0.12949 0.26893 0.141959 0.26161 0.0961277 0.0363251 -0.069926 0.0783794 -0.0166157 -0.195276 -0.0605242 -0.0135331 -0.17962 -0.139982 0.203121 -0.153283 -0.211791 -0.146924 -0.223966 -0.264564 -0.283471 -0.167407 0.0944182 0.128839 -0.117232 0.2443 -0.138396 0.154862 0.262474 0.0676971 0.13018 0.152379 -0.0808223 0.0108649 -0.0931555 0.046974 -0.0679151 0.0224441 -0.038453 -0.131139 -0.268281 -0.239141 -0.226304 -0.254395 -0.305794 0.182176 -0.379606 -0.498475 -0.180777 -0.37703 -0.37149 -0.518145 -0.392904 -0.0532858 -0.0540971 -0.288438 0.165383 -0.251234 0.0283357 0.135749 0.0175871 -0.0369319 -0.0458372 0.0288546 -0.0753329 -0.0291549 -0.112438 -0.0666393 -0.217124 -0.330444 -0.290811 -0.219929 -0.285535 -0.271209 -0.404488 0.107993 -0.388043 -0.464214 -0.384659 -0.492267 -0.403521 -0.462583 -0.454262 -0.102854 -0.100536 -0.358258 -0.113909 -0.384361 -0.0340437 -0.122448 -0.0950433 -0.126253 -0.100161 -0.117639 -0.0221013 -0.139654 -0.124545 -0.0823207 -0.149654 -0.262701 -0.153887 -0.233463 -0.224224 -0.30193 0.0653268 -0.291975 -0.351446 -0.29841 -0.427891 -0.373178 -0.453443 -0.346076 -0.119583 -0.0689763 -0.200817 -0.00525941 -0.311008 -0.0507217 -0.11262 -0.0786576 -0.107594 -0.0609807 -0.0735225 -0.0735258 -0.183546 -0.0161726 -0.10743 -0.280253 -0.15453 -0.243252 -0.251465 -0.272426 -0.0857115 -0.346477 -0.387665 -0.280885 -0.381642 -0.458094 -0.415968 -0.398354 -0.0326329 0.0949201 -0.216878 -0.00147436 -0.359918 0.0130443 -0.0402742 0.0119491 -0.155006 -0.0733889 -0.173624 -0.124778 -0.137731 -0.159757 -0.257469 -0.194673 -0.175177 -0.26212 -0.264946 0.15941 -0.253631 -0.362213 -0.247837 -0.367879 -0.379367 -0.34182 -0.36215 -0.128026 0.00803405 -0.252653 0.0627903 -0.25413 -0.061715 -0.0920093 0.00884476 -0.0992165 -0.00267341 -0.0422475 0.107171 -0.0853905 -0.178406 -0.0789322 -0.08689 -0.123431 -0.177474 0.185617 -0.183338 -0.251696 -0.182446 -0.339829 -0.251584 -0.303588 -0.25382 0.107227 0.180666 -0.200462 0.19072 -0.287426 0.0185268 0.161124 0.112764 0.00710741 0.0815323 -0.013239 -0.0476065 -0.232648 -0.161073 -0.0991157 -0.120902 -0.285763 0.0874797 -0.278738 -0.230896 -0.213298 -0.323938 -0.315043 -0.348131 -0.267395 0.0684281 0.0793473 -0.176485 0.16675 -0.218512 0.210723 -0.0296282 -0.0523305 0.00834818 0.092834 -0.0869362 -0.185477 -0.0602669 -0.0839434 -0.192508 -0.152851 0.039514 -0.224907 -0.282765 -0.200411 -0.288435 -0.244262 -0.324016 -0.219262 0.0011362 0.142501 -0.219573 0.019252 -0.219959 0.0921688 -0.0604568 0.0340217 -0.19134 0.0113102 -0.164244 -0.0434946 -0.106983 -0.144509 -0.228867 0.188993 -0.233373 -0.253144 -0.227418 -0.342532 -0.229813 -0.328717 -0.241531 0.0469565 0.0356199 -0.15663 0.136863 -0.232084 -0.0676151 0.147053 0.219889 0.127433 0.107801 0.0923736 0.143593 0.0334357 -0.0379201 0.309585 -0.0445018 -0.164072 -0.005866 -0.0577343 -0.066996 -0.0821984 -0.0823013 0.245617 0.208271 0.0397384 0.329101 -0.011044 0.292346 0.305538 0.104 0.194887 0.177779 0.0773118 -0.039608 -0.108405 0.24908 -0.113809 -0.114709 -0.126075 -0.196924 -0.138468 -0.184972 -0.123711 0.173478 0.226381 -0.0897535 0.294588 -0.0488372 0.254459 0.290387 0.193107 0.15963 0.224759 -0.0683219 -0.122914 0.243488 -0.160025 -0.142608 -0.171326 -0.181535 -0.171744 -0.190042 -0.229171 0.129525 0.153925 -0.0854038 0.197668 -0.118065 0.200309 0.1809 0.145263 0.100662 0.129463 -0.0774096 0.364784 -0.130537 -0.112065 -0.0162853 -0.126772 -0.107777 -0.16386 -0.10515 0.224193 0.233503 -0.0371243 0.37884 -0.0731384 0.275973 0.304789 0.180683 0.167422 0.280345 0.469309 -0.0612951 -0.00957584 -0.00548148 -0.0790074 -0.0648404 -0.0634523 -0.0113202 0.243133 0.240239 0.012602 0.37099 -0.0104109 0.306102 0.246211 0.244829 0.203001 0.257715 -0.390654 -0.480362 -0.3087 -0.504288 -0.431879 -0.51227 -0.351459 -0.166772 -0.144692 -0.393253 -0.00996416 -0.389083 -0.0372258 0.0143978 -0.0662285 -0.134207 -0.0577524 0.0279825 0.0448479 -0.0828847 -0.00333378 -0.0364024 0.0226795 0.283902 0.347821 0.0547766 0.481608 -0.00673437 0.312941 0.420103 0.268995 0.191879 0.255065 0.0661083 -0.0551703 -0.0230636 -0.0393812 -0.023387 0.265437 0.350222 0.0300098 0.394212 0.0322899 0.267331 0.462585 0.204889 0.251588 0.268074 -0.102941 -0.00027548 -0.128179 -0.0610416 0.171492 0.190673 0.0103993 0.395035 -0.050946 0.320912 0.254815 0.214729 0.159023 0.1556 -0.00729959 -0.0063089 0.0376456 0.360549 0.368774 0.0953476 0.459792 0.0436939 0.41791 0.424413 0.39143 0.346214 0.326903 -0.0507082 0.0149509 0.307236 0.322518 0.0943284 0.438775 0.0108318 0.399045 0.417592 0.286249 0.260666 0.325767 0.0616392 0.34866 0.362502 0.14324 0.411809 0.0674253 0.453377 0.450628 0.324805 0.377256 0.31166 0.249964 0.303738 0.072071 0.379373 -0.0257721 0.328489 0.323744 0.220835 0.24831 0.266428 0.16246 -0.199798 0.0391498 -0.191648 0.160621 0.0395357 0.0147183 -0.0987378 0.0745599 -0.142633 0.063293 -0.235159 -0.0368658 0.102137 -0.0620188 -0.0249299 -0.00612298 0.343308 -0.0141015 0.286206 0.293087 0.257632 0.153722 0.206056 -0.351395 0.0105021 -0.0900443 -0.0612117 -0.213767 -0.148559 0.396667 0.34255 0.283976 0.28923 0.287223 0.108766 -0.0377225 -0.00777395 -0.122759 0.0245225 -0.0611224 -0.0583294 -0.00194496 -0.00680608 0.0475595
label 11111 111110 111111 111112 111113 111114 111115 111116 111117 111118 111119 11112 111120 111121 111122 111123 111124 111125 111126 111127 111128 111129 11113 111130 111131 111132 111133 111134 111135 111136 111137 111138 111139 11114 111140 11115 11116 11117 11118 11119
nr_sv 87 21 26 22 24 16 25 15 50 50 24 86 23 24 24 24 23 13 12 14 18 11 84 8 8 10 12 10 13 13 14 14 14 83 13 50 50 22 23 25
SV
0 0 0 0 0 0 0 0 0 0 0 0 0 0 0 0 0 0 0 0 0 0 0 0 0 0 0 0 0 0 0 0 0 0 0 0 0.2833188255659862 0 0 1:0.38990399 2:0.50427014 3:0.54425353 4:0.45890525 5:0.81418335 6:0.80407876 7:0.53798765 8:0.6115846 9:0.50182033 10:0.49084303 11:0.30671901 12:0.24985519 13:0.67719531 14:0.42184249 15:0.37584993 16:0.39967391 17:0.53260046 18:0.6453113 19:0.75667638 20:0.51864004 21:0.69754541 22:0.54698783 23:0.39578423 24:0.298262 25:0.45923886 26:0.28379154 27:0.56940365 28:0.64183688 29:0.7003805 30:0.55092007 31:0.40126994 32:0.32351056 33:0.17321047 34:0.64429855 35:0.40649784 36:0.63566303 37:0.61892748 38:0.48336753 39:0.31588846 40:0.6234653 41:0.3954491 42:0.37936932 43:0.53763193 44:0.71856689 45:0.51364779 46:0.45664689 47:0.56832409 48:0.4536806 49:0.59497249 50:0.44764289 51:0.32134011 52:0.59104341 53:0.56627452 54:0.39861229 55:0.51819867 56:0.59893405 57:0.48783758 58:0.64798832 59:0.43942255 60:0.42454508 61:0.62006664 62:0.47231165 63:0.39322945 64:0.48859525 65:0.3857868 66:0.47586536 67:0.44879121 68:0.37794894 69:0.47127807 70:0.46691772 71:0.73723745 72:0.9590342 73:0.79550403 74:0.65862173 75:0.88737512 
0 1.268737222264086 0 1.290344619346694 0 1.450067238118129 0 0 0 0 0 0 0 0.2185942871893357 0.6776222636183795 0 0 0 0.2795496220923832 0 0 0.03029985932663875 0.3998206343356122 0 0.6014140066361575 0 0 0 0 0 0 0 0 0 0 0.7837853296446985 0 0 0.6067783558968277 1:0.37273318 2:0.55748719 3:0.29057926 4:0.61196244 5:0.8355428 6:0.44778109 7:0.37383804 8:0.54119629 9:0.66384053 10:0.33481756 11:0.349599 12:0.33054471 13:0.51964784 14:0.39442679 15:0.50860578 16:0.59343868 17:0.59911096 18:0.71288735 19:1 20:0.5546487 21:0.6518814 22:0.61534208 23:0.36794761 24:0.50222164 25:0.60801351 26:0.22450474 27:0.61956888 28:0.67913884 29:0.76438034 30:0.6144383 31:0.52803856 32:0.37640476 33:0.24393471 34:0.61222082 35:0.37558907 36:0.33638009 37:0.51719505 38:0.34683663 39:0.20587297 40:0.46120688 41:0.50197339 42:0.30967385 43:0.72968978 44:0.73768938 45:0.63528937 46:0.59821022 47:0.53964967 48:0.47414708 49:0.54655838 50:0.61723256 51:0.28646964 52:0.74068993 53:0.4944075 54:0.37933964 55:0.56288511 56:0.46616074 57:0.76113713 58:0.54321635 59:0.49486971 60:0.46996048 61:0.63361555 62:0.5479691 63:0.31734806 64:0.38833708 65:0.39317465 66:0.48055431 67:0.36384919 68:0.33781087 69:0.4645426 70:0.62725639 71:0.72430545 72:0.87531471 73:0.82447714 74:0.69539005 75:0.88206148 
0.4445803476094298 0 1.037221426237499 0.798120312353291 1.959968540431094 0.2123976142147418 0 0.7155748760762493 0 0.2531330325780478 0.1518477542131192 0.3503541381565911 0.211444409589478 0 0 1.949537654234465 0 0 0 0.2914592072615553 1.19387447770328 0 0 0.05049240920039133 0 0 0 0.175250797113957 1.66024576461907 0.7091518234137782 0.7891221165682617 0.45142271657347 0.5492883690638272 0.3683922021049366 1.086393436237373 1.542806457965081 0 0.2276054993892757 0.2199882254780622 1:0.46774966 2:0.58826756 3:0.27103147 4:0.28776243 5:0.42756221 6:0.63909614 7:0.61368483 8:0.38828868 9:0.19566196 10:0.75569546 11:0.56068212 12:0.43135995 13:0.48084903 14:0.26878795 15:0.57608992 16:0.33117819 17:0.4621096 18:0.5510326 19:0.11062801 20:0.099022709 21:0.89481682 22:0.50291908 23:0.34178981 24:0.66710496 25:0.45946255 26:0.43958491 27:0.32560283 28:0.49481103 29:0.48396575 30:0.38278607 31:0.38453096 32:0.58374232 33:0.77101213 34:0.25106001 35:0.29737517 36:0.51543349 37:0.33750984 38:0.48428726 39:0.37135634 40:0.59078598 41:0.62762147 42:0.35743764 43:0.4889029 44:0.58455426 45:0.50696981 46:0.38919753 47:0.50769413 48:0.26796427 49:0.55906415 50:0.62787265 51:0.35345718 52:0.45208296 53:0.48765093 54:0.49159986 55:0.70800328 56:0.59659666 57:0.69424045 58:0.68202537 59:0.29960594 60:0.42482743 61:0.5620203 62:0.5597524 63:0.44133246 64:0.31245145 65:0.47540465 66:0.4986712 67:0.52030241 68:0.25307629 69:0.36587986 70:0.50049573 71:0.87287641 72:0.81249249 73:0.90782094 74:0.73350763 75:0.79292947 
0 0 1.882170718850743 0.5023696263308244 0 0 0 0.8629939338268398 0 0.8103814485717601 0.009182898889457461 0 0 1.23962808291451 0 0.1153425235563073 0 0 0 0 0.1543552626474209 0 0 0.1934812336730193 0 0.409241260707969 0 1.630007326664522 0.1055231201815491 0 0 0 0.9300788701185747 0 0.9386557661429843 0 0 0 0 1:0.80294293 2:0.60856652 3:0.44721636 4:0.37553108 5:0.61297047 6:0.68069059 7:0.69946486 8:0.45347771 9:0.52901715 10:0.46958172 11:0.56545109 12:0.81977236 13:0.58088696 14:0.22148992 15:0.39854005 16:0.23467505 17:0.34170794 18:0.43018246 19:0.40050158 20:0.5047918 21:0.84958673 22:0.48131388 23:0.29022357 24:0.49690589 25:0.39861163 26:0.4059076 27:0.319031 28:0.64876938 29:0.49759921 30:0.29248214 31:0.60224617 32:0.45288149 33:0.6774888 34:0.39359373 35:0.39218944 36:0.55631649 37:0.40162054 38:0.55618203 39:0.29415178 40:0.64222449 41:0.40341654 42:0.31333929 43:0.44118029 44:0.60814023 45:0.66661882 46:0.37342054 47:0.4806909 48:0.53063589 49:0.42179012 50:0.67981613 51:0.25419569 52:0.59512037 53:0.54508835 54:0.40999904 55:0.7419616 56:0.51449013 57:0.69145232 58:0.69423395 59:0.34459534 60:0.47888315 61:0.47896677 62:0.53751224 63:0.17692971 64:0.34335032 65:0.49558648 66:0.4277415 67:0.38742125 68:0.19234712 69:0.39655888 70:0.55443543 71:0.80130762 72:0.80295026 73:0.90843832 74:0.75176489 75:0.73454803 
0 0 0 0 0 0 0.2189093405075417 0 0 0 0 0 1.037465914401272 0 0 0 0 0 0 1.366812222625708 0.239176535892721 0 0 0 0 0 0.002110236099280122 0 0 1.258563077750215 0 0.08122894259271932 0 0 0 0 0 0 0 1:0.43927088 2:0.84146172 3:0.25463393 4:0.16791932 5:0.4195953 6:0.77997082 7:0.37746066 8:0.1191771 9:0.24655548 10:0.53066385 11:0.55842042 12:0.55888182 13:0.58217436 14:0.46733424 15:0.62498623 16:0.45470527 17:0.27106321 18:0.10812747 19:0.47167593 20:0.42957538 21:0.22737117 22:0.68210489 23:0.59602004 24:0.42527229 25:0.4955748 26:0.34333122 27:0.61066473 28:0.57362682 29:0.43347886 30:0.39671174 31:0.41945612 32:0.3235496 33:0.64782166 34:0.46029142 35:0.54240686 36:0.65440214 37:0.53055239 38:0.34738687 39:0.57663387 40:0.62802714 41:0.48077741 42:0.41292289 43:0.52844423 44:0.4804931 45:0.063693702 46:0.63605499 47:0.54699749 48:0.50670731 49:0.39003488 50:0.61646754 51:0.57287693 52:0.3601914 53:0.35909918 54:0.32599068 55:0.59708983 56:0.51680398 57:0.56917256 58:0.40795675 59:0.26810113 60:0.51578945 61:0.4707765 62:0.45635942 63:0.46578911 64:0.49635917 65:0.3580378 66:0.43723628 67:0.51765108 68:0.33442131 69:0.44258535 70:0.27186513 71:0.81262994 72:0.87643683 73:0.88103068 74:0.81623524 75:0.93125707 
0 0 0 0 0 0 0 0 0 0 0 0 0 0 0 0 0.1192349322514226 0.3840472725841487 0 0 0 0 0 0.225374679241174 0.04978331102945305 0 0 0.1389669592422593 0 0.04755962935003049 0.9155554777854844 0 0 0 0 0 0 0 0 1:0.51089257 2:1 3:0.40657267 4:0.25166896 5:0.53691477 6:0.71070683 7:0.32834697 8:0 9:0.34573895 10:0.53914267 11:0.57527137 12:0.62538195 13:0.56544065 14:0.49876726 15:0.74123853 16:0.37616539 17:0.43452269 18:0.1977305 19:0.58293003 20:0.42017496 21:0.30077145 22:0.8645972 23:0.40322238 24:0.310386 25:0.25597957 26:0.35455608 27:0.62829578 28:0.63360995 29:0.43181941 30:0.37020585 31:0.58367574 32:0.43643981 33:0.69319922 34:0.54191446 35:0.52387267 36:0.61960101 37:0.43149468 38:0.34794053 39:0.55906332 40:0.57891905 41:0.43369615 42:0.37815601 43:0.48717427 44:0.50482064 45:0.12656002 46:0.604792 47:0.60521507 48:0.54008442 49:0.45849249 50:0.59969813 51:0.41485152 52:0.39423272 53:0.22966745 54:0.25669235 55:0.67928278 56:0.48975033 57:0.57651496 58:0.53567749 59:0.32597053 60:0.5230332 61:0.44252834 62:0.4177492 63:0.46360376 64:0.51607281 65:0.42525882 66:0.40088931 67:0.40581813 68:0.35749549 69:0.50515765 70:0.33825588 71:0.81556195 72:0.85013545 73:0.86644059 74:0.84659964 75:0.94559753 
0 0 0 0 0 0 0 0 0 0 0 0 0 0 0 0 0 0 0 0 0 0 0 0 0 0 0.8031265013744066 0 0 0 0 0 0 0 0 0 0 0 0 1:0.28920269 2:0.49616423 3:0.77427381 4:0.58698535 5:0.37914515 6:0.64380181 7:0.42237133 8:0.64756775 9:0.52100909 10:0.70742148 11:0.47148684 12:0.19787458 13:0.50843906 14:0.55221194 15:0.56274587 16:0.3193157 17:0.43508011 18:0.40284207 19:0.198874 20:0.54411364 21:0.87624675 22:0.64735574 23:0.14766045 24:0.47927576 25:0.19264276 26:0.63557082 27:0.23230118 28:0.5863589 29:0.38748077 30:0.50282013 31:0.32231125 32:0.77851379 33:0.26438564 34:0.49884322 35:0.3629078 36:0.73763186 37:0.53963464 38:0.62967747 39:0.45058289 40:0.68032986 41:0.46398449 42:0.41972086 43:0.49461868 44:0.47150218 45:0.63266957 46:0.13158786 47:0.51932406 48:0.45568356 49:0.60745341 50:0.57888567 51:0.3843396 52:0.53063548 53:0.75958765 54:0.44403782 55:0.51202768 56:0.58000511 57:0.42094964 58:0.56590182 59:0.36104399 60:0.44461522 61:0.70603538 62:0.45391563 63:0.46914962 64:0.52292997 65:0.42445624 66:0.4809812 67:0.50989723 68:0.35074183 69:0.54397327 70:0.47525352 71:0.76926464 72:0.94245309 73:0.84950835 74:0.6878643 75:0.83269924 
0 0 0 0.01822640204178681 0 0 0 0 0 0 0 0 0 0 0 0 0 0 0 0 0 0 0 0 0 0 0 0 0 0 0 0 0 0 0 0 0 0 0 1:0.44079128 2:0.59310192 3:0.73554379 4:0.7566635 5:0.54008329 6:0.40587899 7:0.59279627 8:0.4300091 9:0.34240454 10:0.75830412 11:0.62508523 12:0.4445959 13:0.5643996 14:0.71359396 15:0.86638826 16:0.45842794 17:0.48858914 18:0.72154695 19:0.40985531 20:0.72621536 21:0.90181965 22:0.4625954 23:0.32219559 24:0.56401432 25:0.43602678 26:0.58240247 27:0.28231472 28:0.41913429 29:0.49360198 30:0.72129107 31:0.52654052 32:0.7406593 33:0.43040246 34:0.41491151 35:0.39941075 36:0.59842759 37:0.54050601 38:0.69552469 39:0.3669408 40:0.43907267 41:0.43813854 42:0.39013007 43:0.44327331 44:0.47704932 45:0.50817364 46:0.32765007 47:0.48962104 48:0.4591682 49:0.56197679 50:0.60411221 51:0.46477669 52:0.46621215 53:0.72140795 54:0.5349682 55:0.49151084 56:0.66718459 57:0.44313627 58:0.6231553 59:0.27087575 60:0.55919123 61:0.62940443 62:0.54539871 63:0.33769682 64:0.43098506 65:0.40988162 66:0.45423117 67:0.4231095 68:0.32941389 69:0.53389961 70:0.4639872 71:0.76463044 72:0.96584129 73:0.85870504 74:0.76607287 75:0.84338284 
0 0.688969700917754 1.117784997923855 0.6856406375308638 0 0 0 0.9489128397336624 0 0 0 0.04901678712441752 0.1722906742302736 0 0 0 0.1609000062836974 0 0 0 0 0 0 0 0 0 0.246259053792634 0 0 0 0 0 0 0 0 0 0.5011849456223787 0 0 1:0.34056777 2:0.45291114 3:0.66372794 4:0.52073979 5:0.45283553 6:0.5832963 7:0.073662639 8:0.58048427 9:0.41979215 10:0.70088667 11:0.53807431 12:0.43481275 13:0.73408836 14:0.57530367 15:0.44853288 16:0.51742375 17:0.69701487 18:0.53466916 19:0.14465776 20:0.69681853 21:0.50873756 22:0.66089559 23:0.51879835 24:0.5382393 25:0.43919048 26:0.39814761 27:0.35491142 28:0.45273656 29:0.32671264 30:0.42033428 31:0.91512853 32:0.32024145 33:0.28097576 34:0.54712838 35:0.5403598 36:0.28650227 37:0.52538544 38:0.66919696 39:0.59214622 40:0.47810069 41:0.4881247 42:0.42305762 43:0.57198012 44:0.45254794 45:0.48504499 46:0.29603195 47:0.56158453 48:0.39360958 49:0.48885247 50:0.3758899 51:0.37912804 52:0.43437493 53:0.65944481 54:0.57095236 55:0.59519804 56:0.54620153 57:0.48195177 58:0.56603485 59:0.3308014 60:0.3071987 61:0.6988036 62:0.47269875 63:0.48077047 64:0.45042551 65:0.48093387 66:0.53339988 67:0.38689685 68:0.42155758 69:0.58411205 70:0.48017919 71:0.68009621 72:0.93969715 73:0.79697657 74:0.65625346 75:0.85637301 
0 0 0.4717021060917047 0 0 0 0 0 0 0 0 0 0 0 0 0 0 0 0 0 0 0 0 0 0 0 0 0 0 0 0 0 0 0 0 0 0 0 0 1:0.51236922 2:0.25065801 3:0.42825046 4:0.61859077 5:0.42236027 6:0.38123447 7:0.2041555 8:0.29376408 9:0.65545958 10:0.62475747 11:0.51772147 12:0.36916327 13:0.64223605 14:0.57800394 15:0.48050493 16:0.48779982 17:0.53726214 18:0.57876611 19:0.41980818 20:0.62255979 21:0.43056026 22:0.64484167 23:0.38686502 24:0.62546474 25:0.52570117 26:0.52108079 27:0.63966054 28:0.52316684 29:0.48708415 30:0.58733892 31:0.83736533 32:0.4530476 33:0.40423256 34:0.40008092 35:0.50923848 36:0.31290099 37:0.44423035 38:0.60247713 39:0.56184435 40:0.47391087 41:0.55006856 42:0.3815161 43:0.7554087 44:0.45837182 45:0.5410803 46:0.31933677 47:0.55780566 48:0.36771777 49:0.52419162 50:0.43865377 51:0.43563038 52:0.49816012 53:0.65133965 54:0.57491392 55:0.51771694 56:0.4083254 57:0.51800317 58:0.46066776 59:0.36710098 60:0.43350616 61:0.59527278 62:0.41730803 63:0.33936265 64:0.49919742 65:0.49926221 66:0.50224292 67:0.37228709 68:0.42254171 69:0.70206553 70:0.45490822 71:0.63225925 72:0.9713881 73:0.86792177 74:0.69922847 75:0.81998396 
0 0 0 0 0 0 0.2182901280398995 0 0 0 0 0 0 0 0 0 0 0 0 0 0 0 0 0 0 0 0 0 0 0.03332949882195355 0 0 0 0 0 0 0 0.6747422942070997 0 1:0.73537308 2:0.42755517 3:0.46311936 4:0.59216338 5:0.61961275 6:0.45982364 7:0.080045424 8:0.56168401 9:0.35867056 10:0.85986656 11:0.51441115 12:0.46756071 13:0.59884739 14:0.44562712 15:0.50956678 16:0.43750936 17:0.24974214 18:0.61292154 19:0.076671772 20:0.55620611 21:0.53767329 22:0.24328223 23:0.51483476 24:0.6097607 25:0.57803768 26:0.51385796 27:0.29793862 28:0.26124951 29:0.510445 30:0.55549937 31:0.79660118 32:0.65579689 33:0.4443748 34:0.56541419 35:0.70231408 36:0.39953205 37:0.55285025 38:0.57604301 39:0.31673536 40:0.35065013 41:0.65742213 42:0.48864552 43:0.60125339 44:0.53459316 45:0.55194432 46:0.39440298 47:0.68442082 48:0.53112638 49:0.6609453 50:0.64541578 51:0.49025679 52:0.31311017 53:0.65045947 54:0.6545499 55:0.53894043 56:0.49450061 57:0.55937046 58:0.47967184 59:0.35310227 60:0.45773974 61:0.65296602 62:0.59001207 63:0.36245269 64:0.38358942 65:0.51095241 66:0.49499649 67:0.54092127 68:0.26454979 69:0.42146048 70:0.37123641 71:0.87554365 72:0.92660528 73:0.85296226 74:0.70192999 75:0.86764705 
0.3537682481346829 0 0.3601339896915648 0.03528300028167381 0.3160199647266055 0 0 0 0 0 0.4502137492662072 0.4701131052331486 0 0.2807260159589187 0.3650488179881098 0 0 0 0.2593304844222248 0 0.2382159226709898 0.666593387610029 0 0 0 0.1248917581423195 0 0 0 0 0 0 0.8065342488912188 0 0 0 0 0 0 1:0.54620886 2:0.44045073 3:0.52634412 4:0.52880961 5:0.85992432 6:0.42159441 7:0.32181597 8:0.4716627 9:0.65569985 10:0.73683751 11:0.16941588 12:0.44913286 13:0.74319267 14:0.33839351 15:0.34692287 16:0.36231589 17:0.37611496 18:0.4736996 19:0.15079433 20:0.45164347 21:0.62281352 22:0.25301278 23:0.52482301 24:0.73467195 25:0.42384243 26:0.63309741 27:0.30587772 28:0.12287293 29:0.37568605 30:0.54940772 31:0.59769106 32:0.58403552 33:0.72469956 34:0.70520991 35:0.68913132 36:0.39040688 37:0.31408346 38:0.51653165 39:0.27415222 40:0.51742399 41:0.76611537 42:0.31615484 43:0.63095564 44:0.48051071 45:0.49727744 46:0.30082136 47:0.61701316 48:0.47845131 49:0.61084187 50:0.67882222 51:0.46261814 52:0.45308608 53:0.5471794 54:0.64860994 55:0.65159464 56:0.50560051 57:0.70283204 58:0.54215771 59:0.37174577 60:0.51075912 61:0.49720669 62:0.52824682 63:0.18343724 64:0.29459012 65:0.52920556 66:0.47519651 67:0.51940507 68:0.21989854 69:0.47159302 70:0.42161348 71:0.82710862 72:0.92842752 73:0.88525641 74:0.63247937 75:0.78295863 
0 0 0 0 0 0 0 0 0 0 0 0 0 0.7016500806282785 0 0 0 0 0 0 0 0.376513660190897 0 0 0 0 0 0 0 0 0 0 0.7258471759580288 0 0 0 0 0 0 1:0.46621361 2:0.47020459 3:0.31472069 4:0.12124305 5:0.44450167 6:0.53105265 7:0.47748524 8:0.811064 9:0.42868069 10:0.41401571 11:0.17711441 12:0.58519125 13:0.49465671 14:0.59517127 15:0.40366882 16:0.42007893 17:0.71602118 18:0.30607012 19:0.42626885 20:0.32386488 21:0.51316929 22:0.52054065 23:0.5749203 24:0.63391256 25:0.33253154 26:0.36279678 27:0.80954891 28:0.40166035 29:0.55838794 30:0.77981502 31:0.58701932 32:0.41930118 33:0.47996396 34:0.38465545 35:0.47761208 36:0.38012409 37:0.47357529 38:0.42629135 39:0.52350193 40:0.64405173 41:0.4266142 42:0.52114028 43:0.57951784 44:0.46675256 45:0.40134045 46:0.32545635 47:0.29149181 48:0.41291282 49:0.58364499 50:0.60048115 51:0.46414736 52:0.63623035 53:0.58609325 54:0.36695328 55:0.46875885 56:0.39365152 57:0.39167041 58:0.54671246 59:0.32047325 60:0.38031128 61:0.38579783 62:0.46700314 63:0.50214356 64:0.41680238 65:0.39574248 66:0.58603531 67:0.57095909 68:0.39988065 69:0.60472882 70:0.48342478 71:0.75255328 72:0.97270644 73:0.84010512 74:0.52747673 75:0.84583336 
0 1.459018384175026 0 0 0.3360463508920271 0 0 0 0 1.503374809839536 0 1.142167551039343 0 0.1405532673771818 0 0 0 0.202555453920322 0 0 0 0 0 0 0.1152165184198237 0 0 0.2436159410304038 0 1.288490086610825 0.2845427577510722 0 0 0 0 0 0 0 1.095811459679689 1:0.71360117 2:0.79604602 3:0.49822229 4:0.62778628 5:0.34198245 6:0.38427505 7:0.21981275 8:0.67867875 9:0.5378983 10:0.98769295 11:0.50334948 12:0.42756587 13:0.65346837 14:0.41186431 15:0.42169759 16:0.29281327 17:0.50421762 18:0.66809827 19:0.40769809 20:0.61749643 21:0.51177049 22:0.44471243 23:0.5551489 24:0.74224484 25:0.34050098 26:0.41033977 27:0.30526212 28:0.53374088 29:0.58297473 30:0.64762259 31:0.7305553 32:0.66121846 33:0.40014356 34:0.45773846 35:0.69240475 36:0.43816409 37:0.93457454 38:0.68911707 39:0.42151999 40:0.53214473 41:0.77376896 42:0.44036508 43:0.30419391 44:0.66092777 45:0.23399705 46:0.41756386 47:0.59732628 48:0.71463752 49:0.59288108 50:0.44774109 51:0.33551523 52:0.385968 53:0.5121488 54:0.64799333 55:0.42569485 56:0.52373099 57:0.55430144 58:0.6730451 59:0.38783652 60:0.40652204 61:0.50299507 62:0.40443274 63:0.40132794 64:0.46307912 65:0.45758942 66:0.51338178 67:0.43034318 68:0.23090376 69:0.30925167 70:0.37242356 71:0.75916815 72:0.87067467 73:0.87634599 74:0.77694553 75:0.9737699 
0 0 0 0 0 0 0 0 0.319161970448881 0 0 0 0 0 0 0 1.003165193007618 0 0 0 0 0 0 0.05733712366963061 0 0 0 0 0.8416265932397254 0 0.2620039914078997 0 0.3548773752597468 0 0 0.2216852030562685 0 0 0 1:0.71478635 2:0.65562159 3:0.37771598 4:0.74449331 5:0.5481227 6:0.32390592 7:0.24185048 8:0.71469176 9:0.50805402 10:0.8376376 11:0.50731772 12:0.43341708 13:0.66262674 14:0.54181272 15:0.27541894 16:0.30776075 17:0.30338493 18:0.71395403 19:0.49964917 20:0.64559114 21:0.52472728 22:0.43139064 23:0.50044888 24:0.75367248 25:0.58370155 26:0.47807664 27:0.57175785 28:0.3209255 29:0.46051592 30:0.60904872 31:0.8981843 32:0.42574388 33:0.28986433 34:0.30282059 35:0.62817258 36:0.39133328 37:0.75383931 38:0.54014212 39:0.47694522 40:0.54276377 41:0.79722291 42:0.38022301 43:0.46764979 44:0.57509285 45:0.39716682 46:0.37068814 47:0.73043948 48:0.60998476 49:0.63365674 50:0.48269784 51:0.43447253 52:0.27407148 53:0.41732869 54:0.58292621 55:0.51266855 56:0.40541378 57:0.56433034 58:0.60808516 59:0.348849 60:0.36985525 61:0.46361566 62:0.39191365 63:0.27582005 64:0.48640579 65:0.48357239 66:0.5440914 67:0.47953597 68:0.27482778 69:0.3557885 70:0.34255525 71:0.7560975 72:0.89862877 73:0.95806015 74:0.80002302 75:0.92875254 
0 0.1204485736316878 0.2285952660919464 0 0 0 0 0 0 0 0 0 0 0.937887558022908 0.285126593371024 0.238454357749276 0 0 0 0 0.2111104018364879 0 0.2810499864679882 0.0790023116087728 0 0 1.383102085489192 0 0 0 0 0 0 0 0.1749577629697784 0 0.2674784397900477 0 0 1:0.39858016 2:0.33120498 3:0.57361323 4:0.56114602 5:0.59788942 6:0.47833195 7:0.3614589 8:0.92750436 9:0.45030951 10:0.72646159 11:0.58869064 12:0.57075119 13:0.49590293 14:0.23591131 15:0.66595793 16:0.2693544 17:0.45781872 18:0.5634436 19:0.40200806 20:0.46974394 21:0.43103448 22:0.31380764 23:0.60030299 24:0.44735697 25:0.56192416 26:0.51798892 27:0.33146152 28:0.28648266 29:0.5934881 30:0.57962137 31:0.53055543 32:0.75485045 33:0.40021592 34:0.73757392 35:0.67032462 36:0.67588925 37:0.58151293 38:0.41132289 39:0.21943814 40:0.62754214 41:0.73340392 42:0.22750306 43:0.26579517 44:0.78763545 45:0.26557317 46:0.50026417 47:0.58687001 48:0.46973893 49:0.6485073 50:0.58837652 51:0.4139649 52:0.35930762 53:0.64021933 54:0.52655435 55:0.62652659 56:0.50225455 57:0.53569412 58:0.5979135 59:0.39919463 60:0.36975652 61:0.58924031 62:0.47292781 63:0.34715986 64:0.50759214 65:0.40039799 66:0.48485327 67:0.4514066 68:0.26660565 69:0.37819311 70:0.4334594 71:0.76439446 72:0.88559693 73:0.91487736 74:0.74280614 75:0.90762007 
0 0 0 0 0 0 0 0 0 0 0 0 0 0 0 0 1.510139175056967 0 0 0 0 0 0 0 0 0 0 0 0.1527049481868006 0 0 0 0 0 0 0 0 0 0 1:0.40185404 2:0.36038578 3:0.59231937 4:0.65936762 5:0.61213356 6:0.57906866 7:0.61936271 8:0.85329854 9:0.48760906 10:0.59947246 11:0.33318922 12:0.75222307 13:0.51176757 14:0.31230217 15:0.65490258 16:0.20803644 17:0.54712254 18:0.46079996 19:0.51450813 20:0.60670185 21:0.77797043 22:0.30297166 23:0.49600181 24:0.49768385 25:0.37047419 26:0.56239307 27:0.34076822 28:0.39789307 29:0.47149613 30:0.60672665 31:0.46045974 32:0.67572391 33:0.4059535 34:0.73696834 35:0.68952268 36:0.66578412 37:0.54186457 38:0.59831113 39:0.36553273 40:0.56601453 41:0.64876395 42:0.31910172 43:0.21784444 44:0.71782297 45:0.34772822 46:0.43517247 47:0.56026685 48:0.60852814 49:0.74802238 50:0.39127484 51:0.37624934 52:0.48086357 53:0.54260969 54:0.65831399 55:0.57245022 56:0.59110254 57:0.47910744 58:0.64201587 59:0.37254658 60:0.45443404 61:0.59050411 62:0.48410389 63:0.3501718 64:0.42815813 65:0.4202314 66:0.49285132 67:0.44197199 68:0.29727831 69:0.40908393 70:0.43110764 71:0.77731645 72:0.92247492 73:0.89837879 74:0.79998863 75:0.87647051 
0 0.870515906647426 0.775964473970745 0 0 0.7693357994845724 0.3778314098439147 0.9971629745736081 0.3416409766294214 0 0.3399932312811054 0 0 0.4876359525744169 0.3567949927392741 0.1126931874837416 0.8817483526920321 0 0 0 0 0.1531214975724598 0 0 0.7321305883207855 0 0.05431950214527072 0.4008234318008334 0 0 0 0 1.064209630959254 0.1412744353969246 1.690622369400265 0.2146749744766406 0 0.07041390792491449 0.6756003632719141 1:0.4792518 2:0.44418365 3:0.40900198 4:0.61657107 5:0.33337381 6:0.50367308 7:0.6072287 8:0.43655831 9:0.38608536 10:0.65257096 11:0.22741035 12:0.55818063 13:0.56898856 14:0.63222158 15:0.65990895 16:0.66865766 17:0.53564215 18:0.56479931 19:0.66644263 20:0.33129382 21:0.47552758 22:0.37975547 23:0.64688528 24:0.42511216 25:0.3990697 26:0.37859231 27:0.62646568 28:0.51869184 29:0.67482835 30:0.28748503 31:0.76740575 32:0.54506385 33:0.0082213767 34:0.65192777 35:0.53377289 36:0.30897316 37:0.85794902 38:0.62217021 39:0.43221942 40:0.48832384 41:0.44847849 42:0.42448133 43:0.46524578 44:0.68908501 45:0.3404617 46:0.53813708 47:0.47896609 48:0.66688412 49:0.73772812 50:0.3646163 51:0.24950461 52:0.74784929 53:0.41660821 54:0.38105983 55:0.70221382 56:0.57537526 57:0.82763577 58:0.26112598 59:0.52732897 60:0.5444296 61:0.70048314 62:0.49709791 63:0.37389603 64:0.49277392 65:0.39173099 66:0.55907762 67:0.36973184 68:0.24473947 69:0.44202903 70:0.56280565 71:0.72122383 72:0.80727673 73:0.88727605 74:0.74246752 75:0.84550661 
0.1639806304028681 0 0 0 2.255663062431776 0.08587613392174208 0 0.3744052271628022 0 0.6973425796364255 0 0 3.174682047196927 0 0 0.05398016381467473 0 0 0 0.186267474303965 0 0.7865340742660212 0.1953637123925546 0.3172446525943742 0 1.767002197591753 0 0 0 0 0 0.610857337167608 0 0 1.432853351298582 3.201066678911045 0 0 0 1:0.30086568 2:0.42833123 3:0.35504392 4:0.49093586 5:0.59487432 6:0.54596531 7:0.63675249 8:0.57016408 9:0.36604279 10:0.6618197 11:0.39447924 12:0.41753027 13:0.69795221 14:0.43290776 15:0.36865899 16:0.44873479 17:0.46898183 18:0.3432146 19:0.75392556 20:0.52706885 21:0.60170323 22:0.51326543 23:0.63700527 24:0.56971294 25:0.46138194 26:0.4896813 27:0.51986665 28:0.49447802 29:0.696971 30:0.39860436 31:0.79070956 32:0.31831411 33:0.12812102 34:0.66633868 35:0.37185362 36:0.59998983 37:0.76706558 38:0.5007115 39:0.58761275 40:0.4700118 41:0.6661604 42:0.45872954 43:0.43221357 44:0.62875926 45:0.48071721 46:0.51244777 47:0.44477832 48:0.66560763 49:0.74225533 50:0.48743793 51:0.31501985 52:0.464367 53:0.2908515 54:0.435895 55:0.57013106 56:0.51659864 57:0.62476385 58:0.38991445 59:0.48714659 60:0.48562077 61:0.65545815 62:0.48534384 63:0.36264217 64:0.53160983 65:0.35808659 66:0.530177 67:0.48162302 68:0.24532522 69:0.41014647 70:0.47832927 71:0.77717996 72:0.85524827 73:0.79216045 74:0.76700079 75:0.90155125 
0.6607987320113174 0.02126148645612197 0 0 0 0 1.047153706239613 0 1.47032807317409 0 0.8476517475898682 0 0 0 0 0 0 0 0.9573440074360221 0 0.9885003385338397 0.7219542905592174 0.422331230234875 0.1554481032994319 0 0.2368704550435576 0.9442939972053076 0 0 0.3684216116494142 0 0.3527280774408374 0.8406697741056467 0 0 0 0 0.0513797274404986 0.1688417342931311 1:0.64698321 2:0.54354244 3:0.26515248 4:0.7299152 5:0.68905944 6:0.74771965 7:0.42159423 8:0.28850019 9:0.462605 10:0.74202365 11:0.82192147 12:0.53831863 13:0.57708794 14:0.26949507 15:0.44383648 16:0.52002066 17:0.14163543 18:0.33342892 19:0.2692464 20:0.46767011 21:0.30096832 22:0.57077533 23:0.56980968 24:0.6451143 25:0.61039454 26:0.46584716 27:0.57990944 28:0.48793533 29:0.65371031 30:0.58052164 31:0.66645122 32:0.71346784 33:0.35897478 34:0.7409718 35:0.65350878 36:0.33370101 37:0.55457669 38:0.59035313 39:0.62314361 40:0.56352484 41:0.73488903 42:0.41562852 43:0.61022288 44:0.48178247 45:0.39872694 46:0.26910365 47:0.69769663 48:0.49750593 49:0.43430877 50:0.53012615 51:0.5223043 52:0.39800054 53:0.66305321 54:0.59967518 55:0.42587954 56:0.48274773 57:0.43839416 58:0.42990351 59:0.43510395 60:0.49841091 61:0.51063436 62:0.47369093 63:0.37573177 64:0.43046778 65:0.44181305 66:0.5119521 67:0.53766221 68:0.30968279 69:0.44896594 70:0.26126423 71:0.72749597 72:0.92534441 73:0.84954864 74:0.69627285 75:0.89356363 
0 0 0 0.04878952300905822 1.212680504181289 0 0 0 0 0 0 0.567987900191446 0 0 0 0 0 0 0.5065072412060099 0 0 0 0.938469624546349 0.5328258318422736 0 0 0 0.4901179081610404 0 0 0 0 0 0 0 0 0 0 0 1:0.48157474 2:0.29817653 3:0.34909487 4:0.73166674 5:0.39559245 6:0.40897644 7:0.46849918 8:0.4636524 9:0.53140527 10:0.63625962 11:0.75839424 12:0.43100139 13:0.64710736 14:0.61744386 15:0.49751645 16:0.6137324 17:0.51606554 18:0.37374267 19:0.35347876 20:0.62409395 21:0.51121342 22:0.46479106 23:0.44496349 24:0.72864592 25:0.52559465 26:0.58467531 27:0.42418477 28:0.42732865 29:0.54463357 30:0.69356889 31:0.68943655 32:0.91954994 33:0.7211498 34:0.44896102 35:0.58534831 36:0.42476636 37:0.64119732 38:0.58535755 39:0.48237887 40:0.49389428 41:0.80164313 42:0.29118031 43:0.50470841 44:0.56075066 45:0.37812343 46:0.35757551 47:0.51181114 48:0.50802875 49:0.54625493 50:0.46072042 51:0.62454855 52:0.56560016 53:0.54534143 54:0.51601368 55:0.4505806 56:0.39144161 57:0.49612519 58:0.54646719 59:0.36491096 60:0.52372491 61:0.47087905 62:0.49034011 63:0.3706933 64:0.42564428 65:0.51875848 66:0.54777712 67:0.556234 68:0.28671002 69:0.5206784 70:0.40922469 71:0.70858032 72:0.94370675 73:0.87474817 74:0.65077907 75:0.91881853 
0.8186497969677906 0 0 0.6560796240769772 0.3325440952575072 0 0 1.466668124797975 0 1.386622048381254 0.986721226149031 0 0.511647682894851 0 0 0 0 0 0 0.6864450814968712 0.1084056534323659 0.8583281404371477 0.162072392421374 0 0 0.4778349854786526 0.2090707625252073 0.455120694681947 0.8226324330423179 0.7987995536473049 0 0 0 0.07606432939018912 0.5250699736717247 0 0 0 0.3013629296835892 1:0.60549778 2:0.50737649 3:0.47319832 4:0.29297209 5:0.45023251 6:0.52684069 7:0.76028389 8:0.62484193 9:0.30616289 10:0.44234523 11:0.55812275 12:0.52786165 13:0.33851472 14:0.70022225 15:0.44440874 16:0.31842363 17:0.59895861 18:0.66480142 19:0.7685985 20:0.31329668 21:0.66952211 22:0.54929453 23:0.33101907 24:0.52048248 25:0.57756603 26:0.37388662 27:0.61744511 28:0.28521869 29:0.20305902 30:0.59549308 31:0.51388276 32:0.61299098 33:0.22046296 34:0.53429979 35:0.48453754 36:0.38454372 37:0.47635058 38:0.41698387 39:0.23414545 40:0.60521305 41:0.42677677 42:0.41931823 43:0.31605151 44:0.51500046 45:0.56941909 46:0.5349223 47:0.56211311 48:0.44260764 49:0.57784712 50:0.76968199 51:0.24288598 52:0.70940334 53:0.71588039 54:0.62988555 55:0.63948786 56:0.46352804 57:0.46897787 58:0.49528685 59:0.47228035 60:0.31234145 61:0.2859222 62:0.20380852 63:0.22407149 64:0.35724032 65:0.58352667 66:0.56128007 67:0.59768021 68:0.22403936 69:0.5773496 70:0.59381926 71:0.8047052 72:0.85375464 73:0.5946402 74:0.82208639 75:0.77395725 
0 0 0 0 0 0 0.6524372311743085 0 0 0 0 0.6693518745193224 0 0 0 0 0 0 0 0 0 0 0 0 0 0 0 0 0.1486805074074683 0 0 0.3597293458756906 0.2800485363919156 0 0 0 0 0 0 1:0.82603234 2:0.37459484 3:0.49589947 4:0.30255282 5:0.5927152 6:0.58535898 7:0.83191317 8:0.61866277 9:0.43554425 10:0.5470854 11:0.66175538 12:0.36439773 13:0.3899391 14:0.79299968 15:0.50712794 16:0.26601541 17:0.36197945 18:0.67175794 19:0.72957051 20:0.61656851 21:0.66719609 22:0.4110415 23:0.41072866 24:0.55656868 25:0.66938543 26:0.22922091 27:0.86133641 28:0.34089509 29:0.46864933 30:0.7069996 31:0.29394311 32:0.52765322 33:0.32570076 34:0.37005222 35:0.73332232 36:0.43513572 37:0.45428845 38:0.28109691 39:0.27669567 40:0.63336855 41:0.38637686 42:0.42968407 43:0.42029244 44:0.53158277 45:0.38341045 46:0.54560995 47:0.38856477 48:0.51069939 49:0.5799877 50:0.66094053 51:0.34581792 52:0.64371097 53:0.59811872 54:0.43225566 55:0.58116531 56:0.52485871 57:0.57726634 58:0.67530191 59:0.3389869 60:0.33962664 61:0.36725724 62:0.36239189 63:0.37573931 64:0.45949537 65:0.51107818 66:0.54918081 67:0.45043388 68:0.21321596 69:0.44006568 70:0.48323759 71:0.76873821 72:0.96393216 73:0.80356562 74:0.76044863 75:0.80454946 
0 0 0 0 0 2.080263172205171 0 0 0.9772098438305276 0 0 0 0 0 0 0 0 0 0 0 0.1397934816313874 0 0 0 0 0 0 0 0 0 0 0.9029832657879509 0 0 0 0 0 0 0 1:0.30637351 2:0.54215407 3:0.77075481 4:0.55353141 5:0.36460024 6:0.60580564 7:0.37080428 8:0.47860378 9:0.47729442 10:0.55015582 11:0.40554604 12:0.58837336 13:0.80696195 14:0.57315332 15:0.47125158 16:0.54553539 17:0.61471015 18:0.49722853 19:0.43476394 20:0.7277236 21:0.4977614 22:0.64240324 23:0.60483044 24:0.75508147 25:0.3282907 26:0.50072396 27:0.63086355 28:0.48003101 29:0.58203226 30:0.37964872 31:0.47839916 32:0.28926402 33:0.69566363 34:0.54926777 35:0.57945126 36:0.36009741 37:0.46725127 38:0.50347292 39:0.4149901 40:0.54731816 41:0.59843129 42:0.49246901 43:0.67469597 44:0.43982336 45:0.50908959 46:0.48543733 47:0.31868652 48:0.46304905 49:0.58208627 50:0.49942175 51:0.34270665 52:0.44780415 53:0.45204234 54:0.62082309 55:0.61615145 56:0.52234322 57:0.49329582 58:0.65052164 59:0.27106208 60:0.53246003 61:0.3354269 62:0.33931273 63:0.40665463 64:0.51726598 65:0.5031265 66:0.64132392 67:0.43860158 68:0.47844306 69:0.64499587 70:0.59634101 71:0.70109737 72:0.87260592 73:0.90221828 74:0.69397306 75:0.91366392 
0 0 0 0 0 0 0.2389221564572868 0 0 0 0 0 0 0 0 0 0.8706523159650411 0 0 0 0 0 0 0 0 0 0 0.6948613008697945 0 0 0 0 0 0 0 0 0 0.4995355190244326 0.1726744190970963 1:0.29786497 2:0.65698445 3:0.35645291 4:0.57477379 5:0.89223117 6:0.87642783 7:0.28955358 8:0.76972401 9:0.43605387 10:0.53922176 11:0.40622404 12:0.66532379 13:0.38666591 14:0.33694163 15:0.44726545 16:0.25629655 17:0.38811421 18:0.3404637 19:0.51723796 20:0.66511244 21:0.48096132 22:0.6588046 23:0.28061664 24:0.32990482 25:0.46837541 26:0.37312132 27:0.491941 28:0.59918702 29:0.41929007 30:0.49591362 31:0.86552978 32:0.51403236 33:0.7363143 34:0.47223073 35:0.083423108 36:0.65264505 37:0.46782759 38:0.48146835 39:0.41068563 40:0.36584586 41:0.64438426 42:0.40759727 43:0.44016761 44:0.622926 45:0.44067505 46:0.41489556 47:0.66421807 48:0.36773616 49:0.5614695 50:0.41493428 51:0.48014069 52:0.4578512 53:0.61576831 54:0.40396249 55:0.61954254 56:0.56833833 57:0.4923752 58:0.58404821 59:0.33373249 60:0.46148339 61:0.54787868 62:0.5408833 63:0.49656686 64:0.48595768 65:0.37429053 66:0.47393492 67:0.49116617 68:0.51811057 69:0.55965561 70:0.39606237 71:0.86283135 72:0.896348 73:0.86884534 74:0.70313716 75:0.90525675 
0 0 0 0 0 0 0 0 0 0 0 0 0 0 0 1.079853498909554 1.915601028880777 0 0 0 0 0 0 0 0 0 0 0 0 0 0 0 0 0 0 0 0 0.4207048063706705 0 1:0.36497721 2:0.64257187 3:0.43076503 4:0.62692356 5:0.85003829 6:0.8311463 7:0.29214305 8:0.35156429 9:0.41830331 10:0.45539999 11:0.41049007 12:0.33013222 13:0.59706646 14:0.41264409 15:0.59485477 16:0.55236757 17:0.44742277 18:0.40733272 19:0.72490877 20:0.54283559 21:0.53730887 22:0.60741478 23:0.45951557 24:0.33521956 25:0.2642445 26:0.33388108 27:0.42934704 28:0.47334695 29:0.48612413 30:0.45992815 31:0.51540947 32:0.49625906 33:0.69065762 34:0.29692268 35:0.46641737 36:0.60631329 37:0.39956152 38:0.29694745 39:0.59646976 40:0.37177676 41:0.58676857 42:0.34202027 43:0.57127291 44:0.63083404 45:0.30303413 46:0.45236921 47:0.45462039 48:0.40930679 49:0.56938767 50:0.45266676 51:0.49551308 52:0.44822699 53:0.48503301 54:0.44542059 55:0.58314657 56:0.52736896 57:0.66534042 58:0.57517844 59:0.25652385 60:0.6083793 61:0.63268536 62:0.4536851 63:0.50357211 64:0.53167826 65:0.45612589 66:0.41980284 67:0.43061736 68:0.48281744 69:0.68123889 70:0.48416302 71:0.73749965 72:0.92287534 73:0.84234387 74:0.74432915 75:0.86115164 
0.06771820937490261 0 0 0 0 0 0.5417692381514562 0 0 0 0 0 0 0 0 0 0 0 0 0 0 0 0 0 0 0 0.08499356559279651 0.8775762639785796 0 0 0 0 0 0 0 0 0 0 0 1:0.43404138 2:0.84547442 3:0.56443346 4:0.58860141 5:0.74575651 6:0.48825029 7:0.45456612 8:0.63081604 9:0.29998744 10:0.67069489 11:0.75696057 12:0.35917839 13:0.49719694 14:0.38085398 15:0.61842626 16:0.58242249 17:0.53670788 18:0.8271234 19:0.44680369 20:0.72786808 21:0.37173599 22:0.45199481 23:0.41900611 24:0.22284582 25:0.43931833 26:0.28480613 27:0.25445154 28:0.69918978 29:0.47262606 30:0.57842314 31:0.47115371 32:0.38998479 33:0.34458259 34:0.54560864 35:0.60171348 36:0.7057851 37:0.43587792 38:0.65365934 39:0.402729 40:0.68150485 41:0.67381096 42:0.32010809 43:0.33209148 44:0.63811344 45:0.27778354 46:0.4602285 47:0.54678506 48:0.51095539 49:0.65129334 50:0.31742963 51:0.42834628 52:0.54949987 53:0.55884284 54:0.53166538 55:0.66307831 56:0.60710794 57:0.54575384 58:0.60490435 59:0.37514716 60:0.45239356 61:0.66531461 62:0.4690913 63:0.42892522 64:0.58112043 65:0.3715421 66:0.39092085 67:0.39684534 68:0.42651388 69:0.48048019 70:0.4054676 71:0.79028368 72:0.89830923 73:0.77878052 74:0.74322152 75:0.91050875 
0.5669889430219348 0 0.4316784174776868 0.7818501725338584 0 1.613721157177978 0 0.669025886752037 1.655284192306621 0.3273815316448556 2.115379304862191 0.6039889953471254 0.7262889103272365 0 2.194399067762771 0.1197910172218062 0.01515583594458836 0 0.7084492223391873 1.003671137706117 0 0.9385750783899413 0 1.603336292094988 0 0 0 0.2688105663978999 0 0 0.2779357465865593 0 0.1251158594227818 0.4066629807558461 0 1.303147918963327 0.6494082721026736 0 0.3043849311586022 1:0.76111853 2:0.69830745 3:0.45933267 4:0.56765014 5:0.69937366 6:0.5462932 7:0.48025775 8:0.6943258 9:0.44734856 10:0.6917417 11:0.54420304 12:0.72900069 13:0.54689622 14:0.40502957 15:0.60651082 16:0.33665034 17:0.34604236 18:0.87687749 19:0.5493288 20:0.72715551 21:0.20294686 22:0.42499107 23:0.7014181 24:0.30489174 25:0.5330376 26:0.3278096 27:0.26928627 28:0.4734607 29:0.43302301 30:0.4682577 31:0.60157579 32:0.61731333 33:0.48742875 34:0.46992654 35:0.73635489 36:0.81611264 37:0.42995706 38:0.61648822 39:0.48463756 40:0.50502086 41:0.63664836 42:0.41490451 43:0.34147942 44:0.66730309 45:0.43467113 46:0.52913696 47:0.64750767 48:0.52477813 49:0.42395788 50:0.47967583 51:0.40355915 52:0.50718683 53:0.35992292 54:0.61122757 55:0.68524879 56:0.5578329 57:0.63734722 58:0.59785795 59:0.34057423 60:0.47136456 61:0.59258586 62:0.41865402 63:0.40304095 64:0.50110853 65:0.47811607 66:0.40693733 67:0.29267126 68:0.47072503 69:0.50960267 70:0.43532431 71:0.70308924 72:0.86414403 73:0.7718749 74:0.77648699 75:0.94784164 
0 0 0 0 0 0 0 0 0 0 0 0.8884916196071032 0 0.7823448980134254 0 0 0 0 0 0.04384459972305568 0 0.009747023234303367 0 0 0.715350605173886 0.0766114686705627 0 0 0.1069366286337032 0 0 0.07882003722267705 0 0 0 0 0.5311164407097858 0 0.02514302050546298 1:0.37760225 2:0.52812243 3:0.051935893 4:0.50250971 5:0.76732045 6:0.45602158 7:0.63348186 8:0.61872238 9:0.47683623 10:0.11080346 11:0.62282622 12:0.63740212 13:0.66412932 14:0.41054145 15:0.39873168 16:0.45106226 17:0.56832641 18:0.56251931 19:0.4397012 20:0.36209443 21:0.85995257 22:0.40179026 23:0.50759155 24:0.65405339 25:0.67629123 26:0.52643639 27:0.60680622 28:0.499286 29:0.83754283 30:0.64424342 31:0.74494547 32:0.50123531 33:0.38778341 34:0.3634584 35:0.34757733 36:0.44047225 37:0.63462728 38:0.60576457 39:0.48198658 40:0.22982873 41:0.51540172 42:0.43220007 43:0.57310742 44:0.51594561 45:0.34120986 46:0.48220834 47:0.59782398 48:0.50621289 49:0.53943157 50:0.65864348 51:0.35696727 52:0.43860424 53:0.50205517 54:0.62213719 55:0.43529144 56:0.42494553 57:0.55214012 58:0.64664066 59:0.3952432 60:0.40166974 61:0.51389349 62:0.35289082 63:0.49640864 64:0.45895466 65:0.40610263 66:0.52531916 67:0.45174679 68:0.31409943 69:0.51995832 70:0.40817019 71:0.73708957 72:0.96522075 73:0.86900002 74:0.67096627 75:0.91972297 
0.9877239616705639 0.04322687585608882 0.8336424670023886 0 0 0 0 0 0 0 0 0 0.3207556156006449 0.250352265237649 0 0 0 0.4143173437957417 0 0 0.4031918528529473 0 0 0 0 0 0 0 0 0 0 0 0 0.1097499380831747 0 0 0 0.06766784687130994 0 1:0.29406226 2:0.43044809 3:0.37748662 4:0.69621933 5:0.5515117 6:0.4139798 7:0.56158119 8:0.50340033 9:0.24419677 10:0.5101136 11:0.65133864 12:0.84669131 13:0.68288642 14:0.60979068 15:0.37658861 16:0.44992661 17:0.65358263 18:0.41365442 19:0.51174444 20:0.46952137 21:0.74310893 22:0.62038559 23:0.62901688 24:0.51949424 25:0.61216772 26:0.41296309 27:0.48743269 28:0.38276458 29:0.8119936 30:0.61620915 31:0.78900105 32:0.62178504 33:0.36905015 34:0.53423983 35:0.57093346 36:0.45738614 37:0.7207883 38:0.69784462 39:0.59338224 40:0.61133134 41:0.27503166 42:0.59583026 43:0.48569766 44:0.63218188 45:0.44053581 46:0.41057077 47:0.67410004 48:0.49885103 49:0.59515399 50:0.47468296 51:0.3009856 52:0.45533955 53:0.51604313 54:0.52568859 55:0.46278074 56:0.50631279 57:0.45557657 58:0.60608792 59:0.41752514 60:0.35445547 61:0.52150124 62:0.40018442 63:0.48438647 64:0.41253507 65:0.5038287 66:0.54093397 67:0.42169404 68:0.37592629 69:0.4810921 70:0.49015644 71:0.73828185 72:0.8637442 73:0.78327066 74:0.76095557 75:0.93891299 
0 0.518779472892567 0 0.8564298430309099 0 0 0 0 0 0.5697648698965407 0 0 0 0.5586657153500877 0 1.357348329021742 0 0 0.5973181726379548 0 0 0 0 0 1.572600309163886 0.03692999807704462 0.8978899401749924 0 0 0 0 0 0 0 0 0 0 0.7665552041287683 0 1:0.47319493 2:0.55146033 3:0.23660667 4:0.61188376 5:0.1331473 6:0.59726131 7:0.50366497 8:0.46268508 9:0.60515279 10:0.37170878 11:0.48444033 12:0.44439155 13:0.70604283 14:0.54918605 15:0.58084363 16:0.55602682 17:0.52066875 18:0.48454109 19:0.3036499 20:0.5440954 21:0.26761815 22:0.38779405 23:0.50370181 24:0.45452708 25:0.71451569 26:0.4539789 27:0.46764553 28:0.55753481 29:0.50418323 30:0.48592433 31:0.57504588 32:0.13379894 33:0.37883511 34:0.45731303 35:0.66935325 36:0.39024141 37:0.35791132 38:0.4320046 39:0.56059015 40:0.36758199 41:0.39083055 42:0.63620514 43:0.5106225 44:0.49172127 45:0.16997713 46:0.42720011 47:0.39926681 48:0.46214786 49:0.46980932 50:0.60273707 51:0.47333893 52:0.54068339 53:0.58664966 54:0.41201431 55:0.58155948 56:0.54208726 57:0.48772988 58:0.57384169 59:0.33759597 60:0.41229367 61:0.56511605 62:0.49297208 63:0.47685033 64:0.46070352 65:0.47697553 66:0.53376007 67:0.36091188 68:0.56658393 69:0.7353881 70:0.48040602 71:0.65381181 72:0.8969444 73:0.8704592 74:0.67551303 75:0.85765004 
0 0 0 1.645320043322119 0 0.2806790938219506 0.4988971508903925 0 0.6569321221197475 0.3282052840878883 0.704353102620046 1.63799305609364 0.5236841089451305 0 0 1.719160686994776 0.6683459886675357 0 1.118182706956496 0 0 3.064572266875657 0 0 0 0 0 0 0.5250610801049903 1.532696624162957 0.6180864037724167 0 1.703927009614502 0 0.2457945267431679 0.2487003283449777 0.9999827164449532 0.9533445672914238 0.541680355144836 1:0.3018795 2:0.35726571 3:0.43265814 4:0.62033653 5:0.37379593 6:0.40529928 7:0.61769134 8:0.37738606 9:0.609721 10:0.69735718 11:0.44340989 12:0.50250793 13:0.60401976 14:0.43186554 15:0.36687243 16:0.49853176 17:0.44732875 18:0.2504366 19:0.51459801 20:0.82277638 21:0.61178774 22:0.45401216 23:0.58578408 24:0.59528232 25:0.32863206 26:0.60810703 27:0.42190745 28:0.64047003 29:0.42727444 30:0.45744142 31:0.66750252 32:0.22816764 33:0.58302081 34:0.55499119 35:0.36068776 36:0.41141155 37:0.36499527 38:0.63903892 39:0.58642727 40:0.53150988 41:0.53481215 42:0.57571304 43:0.4757179 44:0.38276795 45:0.22429955 46:0.35727221 47:0.26551265 48:0.6471715 49:0.6039862 50:0.45076132 51:0.41002619 52:0.65899628 53:0.36367124 54:0.58116055 55:0.57041126 56:0.44713745 57:0.51606447 58:0.48907393 59:0.42985526 60:0.49815273 61:0.46870589 62:0.44593567 63:0.39099047 64:0.46280721 65:0.45071954 66:0.53738165 67:0.3670218 68:0.5574134 69:0.79312336 70:0.55422467 71:0.57565743 72:0.89045542 73:0.8125658 74:0.67134178 75:0.80597222 
0.5086989654908698 0 0 0 0 0 0 0 0 0 0 0 0 0 0 0 0 0 0 0 0 0 0 0 0 0 0 0.470798523585205 0 0 0 0 0 0 0 0 0 1.280110676157378 0 1:0.23067455 2:0.5842371 3:0.55150783 4:0.51539981 5:0.41270089 6:0.42084435 7:0.77322793 8:0.56381851 9:0.74674606 10:0.49138331 11:0.46651909 12:0.50721616 13:0.41814032 14:0.54423547 15:0.44640961 16:0.39386445 17:0.47746819 18:0.5297724 19:0.43074158 20:0.72146618 21:0.46771759 22:0.48738346 23:0.62733936 24:0.60410064 25:0.44748089 26:0.46547994 27:0.40091065 28:0.35595572 29:0.53233171 30:0.62234509 31:0.70321512 32:0.46563107 33:0.36763939 34:0.55329478 35:0.54018265 36:0.55401212 37:0.4368366 38:0.53929937 39:0.56480801 40:0.46095279 41:0.545012 42:0.48405918 43:0.64480877 44:0.45111755 45:0.27436748 46:0.17412055 47:0.42499408 48:0.57550699 49:0.55127972 50:0.44978148 51:0.26813072 52:0.58530521 53:0.52669758 54:0.47448701 55:0.47443971 56:0.49726024 57:0.55843449 58:0.59235525 59:0.41705254 60:0.43345156 61:0.55542874 62:0.49286243 63:0.39909711 64:0.4748041 65:0.58230603 66:0.58043838 67:0.38646543 68:0.34768686 69:0.62780756 70:0.55325377 71:0.73666281 72:0.90426016 73:0.8089543 74:0.69664663 75:0.83674878 
0 0 0 0 0 0 1.18394293218321 0 0 0 0 0.7859475546721503 0.2466825595190746 0 0 0 0 0.1228893553029238 0 0.1386900732318098 0.528042977052177 0 0 0 0 0 0 0 0 0 0 0 0 0 0 0 0 0 0 1:0.31800759 2:0.62206823 3:0.271364 4:0.48329237 5:0.63277024 6:0.66561532 7:0 8:0.33815247 9:0.53193027 10:0.49572504 11:0.48909646 12:0.34348238 13:0.3918736 14:0.50519466 15:0.44325888 16:0.65238065 17:0.53339231 18:0.57324368 19:0.85426319 20:0.75021577 21:0.76038617 22:0.52327585 23:0.41912976 24:0.3637822 25:0.37006569 26:0.22384308 27:0.75925601 28:0.85833496 29:0.71221346 30:0.27447277 31:0.61049414 32:0.3530179 33:0.26111081 34:0.50285351 35:0.35909107 36:0.16365455 37:0.63623923 38:0.54507917 39:0.18232532 40:0.46577442 41:0.49425483 42:0.59469563 43:0.66079754 44:0.63002825 45:0.63816202 46:0.51929748 47:0.5385704 48:0.48776874 49:0.554295 50:0.60407829 51:0.38297993 52:0.54220963 53:0.59605473 54:0.41788629 55:0.6065284 56:0.63114995 57:0.44693708 58:0.5940944 59:0.29680303 60:0.4575299 61:0.64536995 62:0.43901867 63:0.4799335 64:0.54997164 65:0.47775161 66:0.38019496 67:0.32791856 68:0.3863138 69:0.50566316 70:0.47922912 71:0.6672374 72:0.92631859 73:0.80443895 74:0.74552119 75:0.87664992 
0.1405425839779277 0.6547235879551095 0 0 0 0.007028745971616878 0 0 0 1.344834242840226 0 0 0 0 0.03284518994114792 0.5611187381727958 0 0 0 0.5494236460109208 0 0.4474170448990071 0 0 0 0 0 0.684429839012635 0.5620926667980363 0 0 0 0 0 0 0 0 0 0 1:0.27923253 2:0.6719628 3:0.4354775 4:0.83960968 5:0.6158393 6:0.59803593 7:0.19375844 8:0.63222647 9:0.61997139 10:0.35132903 11:0.27579728 12:0.62489897 13:0.7320199 14:0.72081542 15:0.46203145 16:0.41465068 17:0.42197302 18:0.45358497 19:0.71510708 20:0.72549701 21:0.4670217 22:0.45578995 23:0.66774839 24:0.51048756 25:0.3938404 26:0.32183906 27:0.35091722 28:0.58561653 29:0.6628691 30:0.32143623 31:0.62938833 32:0.1373881 33:0.13318188 34:0.65097505 35:0.43370903 36:0.41743931 37:0.61712712 38:0.51695728 39:0.17594673 40:0.37702167 41:0.42943308 42:0.56625551 43:0.65377152 44:0.48716715 45:0.61869633 46:0.51976722 47:0.52421474 48:0.59806854 49:0.56576145 50:0.49260944 51:0.30790201 52:0.73313665 53:0.55018508 54:0.5023455 55:0.76036024 56:0.60658652 57:0.64433217 58:0.51610613 59:0.33800185 60:0.5652414 61:0.6393587 62:0.53629863 63:0.33997118 64:0.48507944 65:0.47241944 66:0.50078231 67:0.2790823 68:0.33967552 69:0.49263713 70:0.58259076 71:0.70255935 72:0.89240885 73:0.77117234 74:0.70675963 75:0.91888922 
0.02626795978117596 2.35986529454117 0 0.1705177942274923 0 0.5703546214336542 0 0 1.404814973316481 0.002911123450177836 0.3255696242264776 1.483774470327294 0 0.5840599824768211 0 0.6336808662791995 0 0.4265948890834802 0 0 0.09875665736696218 2.153274951332532 0.2509340592112458 0 0 0 0 0.7549418157839225 0 2.039749873790365 0.7628496564590121 0 1.574606807944815 0 1.220605363282973 0 0 0.7918281175129595 1.347896497001549 1:0.14180997 2:0.44870201 3:0.47045925 4:0.58185947 5:0.63649166 6:0.38992205 7:0.50122148 8:0.84499037 9:0.037442077 10:0.26384827 11:0.58171177 12:0.45044887 13:0.40683314 14:0.3888025 15:0.54026616 16:0.51170611 17:0.67624134 18:0.17266953 19:0.6358102 20:0.4427788 21:0.64510822 22:0.52951223 23:0.48269346 24:0.49456698 25:0.36144906 26:0.23319215 27:0.44722795 28:0.35274366 29:0.57667232 30:0.62176746 31:0.53299361 32:0.60436094 33:0.56476009 34:0.38661203 35:0.44680992 36:0.46949857 37:0.42712316 38:0.53347009 39:0.12059371 40:0.70611876 41:0.46965206 42:0.53445703 43:0.3221727 44:0.34935063 45:0.33847058 46:0.2698828 47:0.5500772 48:0.46582937 49:0.77708232 50:0.5040012 51:0.33909091 52:0.49866328 53:0.73056537 54:0.64867169 55:0.57874787 56:0.50535971 57:0.28591591 58:0.51568258 59:0.45881689 60:0.44240165 61:0.22416826 62:0.26264843 63:0.36790708 64:0.42387131 65:0.58946174 66:0.57125145 67:0.54255164 68:0.50861818 69:0.72865975 70:0.6042968 71:0.65840548 72:0.91458535 73:0.71288383 74:0.64581496 75:0.74790138 
0 0 0 0.4035275433213391 0.4003567898922941 0.2192421105482125 0 0.5467166628584633 0.1317128003237876 0 0.5528250827146499 0 0 0.5284106918679774 0 0 0 0 0.06681386272820224 0 0 0.3509229807884163 0 0 0 0 0.009790575214529772 0 0.867440271813143 0.5287027913523494 0.959319743028931 0 0.2317433400801834 0 0 0.559588092873236 0 0 0 1:0.5597899 2:0.4478671 3:0.35590023 4:0.41247082 5:0.91163325 6:0.28799784 7:0.56221712 8:0.45437783 9:0.38705507 10:0.27584809 11:0.56408042 12:0.33509195 13:0.52340823 14:0.45493361 15:0.61070108 16:0.34539542 17:0.59072351 18:0.48299167 19:0.7686553 20:0.53295064 21:0.58760709 22:0.64528722 23:0.54709244 24:0.56011969 25:0.40746644 26:0.19364358 27:0.41572049 28:0.45224372 29:0.54147178 30:0.49781463 31:0.47601154 32:0.60231513 33:0.22695284 34:0.60135126 35:0.45255059 36:0.54260427 37:0.25900629 38:0.48266432 39:0.37464002 40:0.59549397 41:0.40804407 42:0.54732311 43:0.55705231 44:0.27095002 45:0.54092562 46:0.42557657 47:0.4492051 48:0.51838398 49:0.60124099 50:0.55484837 51:0.32491097 52:0.74775755 53:0.50033295 54:0.50318682 55:0.55860877 56:0.38010508 57:0.59289032 58:0.51791447 59:0.44647622 60:0.49471751 61:0.51994216 62:0.40821797 63:0.45290381 64:0.48549679 65:0.48909345 66:0.52257538 67:0.38605917 68:0.44298515 69:0.63223779 70:0.58493698 71:0.64913839 72:0.91178244 73:0.72679985 74:0.74719656 75:0.81445354 
0 0 0 0 0 0 0.2769709936098961 0 0 0 0 0 0.7923224698013892 0 0 0 0 0 0 0.2592639602420265 0.6655565627820588 0 0 0.9673910120339947 0 0.01183176098106458 0 0.303191996938949 0 0.08068272102643653 0 0 0 0 0 0 0 0 0 1:0.49499491 2:0.31570399 3:0.57587665 4:0.54485035 5:0.23375866 6:0.36628261 7:0.34904754 8:0.550264 9:0.50984854 10:0.50228518 11:0.24919561 12:0.47871295 13:0.38002875 14:0.50012797 15:0.35794127 16:0.62415087 17:0.67525476 18:0.57006752 19:0.35743168 20:0.23320495 21:0.55431104 22:0.58248919 23:0.44206578 24:0.48332766 25:0.38059971 26:0.46556792 27:0.80679381 28:0.5172196 29:0.6208331 30:0.36600009 31:0.78978759 32:0.43018684 33:0.50153905 34:0.43567127 35:0.35739687 36:0.26646146 37:0.35194716 38:0.50722826 39:0.38221237 40:0.5025028 41:0.47374737 42:0.59231973 43:0.4214448 44:0.46380594 45:0.57897478 46:0.48528188 47:0.54326844 48:0.48407722 49:0.43032038 50:0.54169542 51:0.36525166 52:0.53004134 53:0.64760017 54:0.69450402 55:0.59950793 56:0.47796789 57:0.44371715 58:0.42519906 59:0.49628025 60:0.332104 61:0.40522408 62:0.23736919 63:0.37131622 64:0.41857472 65:0.65954036 66:0.58089036 67:0.62240571 68:0.34156284 69:0.73377973 70:0.50845063 71:0.74291986 72:0.85582006 73:0.73479557 74:0.71535724 75:0.81642962 
0 0 1.176663057683877 0 0 0 0 0 0 0 0 0 0 0 0 0 0 0 0 0 0 0 0 0 0.01018787493878674 0 0 0 0 0 0 0 0 0 0 0 0 0 0 1:0.40962437 2:0.39110997 3:0.65164888 4:0.33602524 5:0.62909514 6:0.36829397 7:0.39896289 8:0.72802687 9:0.65857333 10:0.37661934 11:0.35412535 12:0.45310634 13:0.46929032 14:0.31773862 15:0.20110367 16:0.3854624 17:0.59493691 18:0.52221429 19:0.54311001 20:0.57193244 21:0.48539346 22:0.70268583 23:0.51361901 24:0.46338552 25:0.18852733 26:0.45862952 27:0.67733657 28:0.63597333 29:0.73384243 30:0.6482743 31:0.76774377 32:0.48625958 33:0.48721167 34:0.69802845 35:0.36394817 36:0.40546423 37:0.29214847 38:0.4233315 39:0.48892599 40:0.55857915 41:0.46810213 42:0.62619895 43:0.63019556 44:0.49657786 45:0.60192806 46:0.43663883 47:0.37982062 48:0.50412941 49:0.57832348 50:0.41926441 51:0.27368471 52:0.58486533 53:0.620866 54:0.47939399 55:0.52893609 56:0.46167234 57:0.56542444 58:0.60029489 59:0.44428179 60:0.42963356 61:0.51163697 62:0.48933741 63:0.44345593 64:0.50150377 65:0.58647561 66:0.57497001 67:0.46420518 68:0.44936246 69:0.6775583 70:0.47954804 71:0.71963876 72:0.88604045 73:0.85634315 74:0.62260276 75:0.87454885 
0 0 0 0 0 0 0 0 0 0 0 0.1854645927544986 0 0 0 0 0 0 0 0 0 0 0 0 0.003845933113193872 0 0 0 0 0 0 0 0 0 0 0 0 0 0.2133351353269545 1:0.56815565 2:0.53123897 3:0.89382023 4:0.57630849 5:0.35036218 6:0.56672019 7:0.61197877 8:0.8519814 9:0.52618152 10:0.46586636 11:0.29501981 12:0.51724929 13:0.65092194 14:0.35258576 15:0.42190599 16:0.52367419 17:0.53061825 18:0.65040988 19:0.4873369 20:0.73271954 21:0.58200204 22:0.40288508 23:0.35052961 24:0.40054008 25:0.40427536 26:0.39332312 27:0.14983585 28:0.5483045 29:0.48875996 30:0.50902826 31:0.49846116 32:0.53556341 33:0.46200123 34:0.64343882 35:0.43035942 36:0.77050591 37:0.57391769 38:0.67356604 39:0.27686939 40:0.52513671 41:0.33166167 42:0.37568867 43:0.45148987 44:0.48677215 45:0.3644999 46:0.33119139 47:0.70425564 48:0.60205209 49:0.62391835 50:0.48962647 51:0.38541496 52:0.5518685 53:0.61819482 54:0.59723729 55:0.47989509 56:0.64405471 57:0.46246567 58:0.63442838 59:0.33027786 60:0.39108878 61:0.58312976 62:0.44413143 63:0.38992068 64:0.50379568 65:0.52617306 66:0.54672283 67:0.40424863 68:0.35770303 69:0.47754273 70:0.43767095 71:0.72652125 72:0.87377691 73:0.89704782 74:0.72121221 75:0.84889406 
0 0 0 0 0 0 0 0 0 0 0 0 0 0 0 0 0.9579805467979725 0 0 0 0 0 0 0 0 0 0.1328724946417768 0 0 0 0 0 0 0 0 0 0 0 0 1:0.30782354 2:0.25477406 3:0.58433092 4:0.53784847 5:0.55596215 6:0.36157042 7:0.60510767 8:0.52373886 9:0.79379398 10:0.32115975 11:0.48293534 12:0.52317607 13:0.65090567 14:0.46595705 15:0.54897338 16:0.53259051 17:0.43482482 18:0.42017689 19:0.23395804 20:0.65993863 21:0.64987564 22:0.44055361 23:0.56989169 24:0.73322022 25:0.5004195 26:0.41313589 27:0.36042395 28:0.4866915 29:0.4437018 30:0.62406105 31:0.71525902 32:0.38476977 33:0.47101995 34:0.5177685 35:0.2381157 36:0.51665986 37:0.32038051 38:0.5099529 39:0.6502943 40:0.40560192 41:0.43585575 42:0.32772556 43:0.58444792 44:0.47594231 45:0.40633774 46:0.43230751 47:0.59671301 48:0.47893289 49:0.52689409 50:0.55654168 51:0.36611855 52:0.4817017 53:0.49772549 54:0.49236372 55:0.6030966 56:0.53583193 57:0.65590739 58:0.55205339 59:0.38069868 60:0.38876703 61:0.56675136 62:0.41141647 63:0.41611314 64:0.43527237 65:0.57216036 66:0.53754115 67:0.41770494 68:0.33834204 69:0.55946213 70:0.44915771 71:0.72125059 72:0.89226705 73:0.87502617 74:0.77646339 75:0.91552466 
0 0 0 0 0 1.653284082621118 0 0.3739523836045765 1.49026593123673 0.03139569690949169 0 0 0 1.041419064162656 0 0 0 2.338858179414856 0 0 1.029980852315045 0 0 0 0.3200131040001497 0 0.263128838622207 0 0 0 0.6646947580493373 0.1480639126664678 0 0 0 0 0 0 0 1:0.40165216 2:0.53073585 3:0.52686483 4:0.60935169 5:0.56206065 6:0.26567614 7:0.64259303 8:0.49977028 9:0.45173416 10:0.58899796 11:0.48355508 12:0.77022612 13:0.83353376 14:0.33333546 15:0.43811256 16:0.58307016 17:0.50800943 18:0.51869142 19:0.62356901 20:0.53785104 21:0.18012644 22:0.46441999 23:0.84615695 24:0.62641656 25:0.31631866 26:0.45379764 27:0.43717605 28:0.51685679 29:0.87557018 30:0.58176935 31:0.82702482 32:0.36010572 33:0.53097439 34:0.65540248 35:0.20094058 36:0.71654999 37:0.59510124 38:0.59135133 39:0.49456483 40:0.55004287 41:0.60359251 42:0.45069376 43:0.63952565 44:0.63371491 45:0.31497493 46:0.51343864 47:0.44894275 48:0.63433993 49:0.41058919 50:0.50263548 51:0.39311033 52:0.40829128 53:0.38750204 54:0.58995616 55:0.6119433 56:0.53710985 57:0.52584159 58:0.48216647 59:0.52154636 60:0.44783959 61:0.53315902 62:0.49956128 63:0.39065251 64:0.51575428 65:0.40448374 66:0.51928538 67:0.44630155 68:0.24767043 69:0.45413217 70:0.42538425 71:0.77355146 72:0.84391719 73:0.91739392 74:0.73788452 75:0.93036866 
0 0 0.3577000722351714 0 0 0 0 0 0 0 0 0.164620597146844 0 0 0 0 0.08900512920505289 0 0.1800237853128653 0.6189403569469292 0 0 0 0 0 0 0.3884197727343902 0 0 0 0 0 0 0.5787481025260491 0 0.0713872457593248 0 0.3999489730662081 0 1:0.37580961 2:0.71940142 3:0.45800546 4:0.56174988 5:0.57426763 6:0.4185234 7:0.64332938 8:0.52463257 9:0.42306677 10:0.86621666 11:0.4127104 12:0.78865761 13:0.85279483 14:0.45782843 15:0.30974817 16:0.43348223 17:0.62570435 18:0.56004125 19:0.51505101 20:0.4628599 21:0.18100598 22:0.57117802 23:0.73483527 24:0.36201906 25:0.27468964 26:0.48617658 27:0.4983758 28:0.4766109 29:0.89064133 30:0.55435801 31:0.71978647 32:0.34669891 33:0.60890818 34:0.69252974 35:0.3841041 36:0.75921065 37:0.55808675 38:0.64018351 39:0.54466188 40:0.58258992 41:0.47958195 42:0.43636686 43:0.5537923 44:0.58845806 45:0.21679139 46:0.54224402 47:0.39845088 48:0.56571287 49:0.52305382 50:0.4034504 51:0.44258046 52:0.41501573 53:0.30976498 54:0.52156502 55:0.58723259 56:0.58387923 57:0.47836351 58:0.46366981 59:0.4311398 60:0.39403898 61:0.53984237 62:0.44617161 63:0.41353998 64:0.48423699 65:0.47636592 66:0.4989261 67:0.47453052 68:0.33141869 69:0.41325438 70:0.37766561 71:0.77347863 72:0.83283532 73:0.8388713 74:0.71590352 75:1 
0 0 0 0 0 0.6324439337838769 0 1.570585932674721 0 0 2.124942719836038 0 0 1.160124527890428 0 0 0 0.1316216621337634 0 0.7031104381177062 0.1767623828802504 0.1841929079795399 0.3351953930339331 0.05209207113322741 0 0 0.7370352329303557 0 0 1.553967173391033 0.9524780228961774 0 0.3222481197366948 0.3935351749593889 0 0 0 0 0.9080344131860247 1:0.22632527 2:0.54333961 3:0.35936186 4:0.72939277 5:0.56629521 6:0.77693272 7:0.40256134 8:0.83485001 9:0.46497765 10:0.48872954 11:0.35431865 12:0.62342924 13:0.45386216 14:0.39157727 15:0.2494836 16:0.47931039 17:0.56895912 18:0.54912609 19:0.4750216 20:0.68871546 21:0.68931448 22:0.61950827 23:0.40627325 24:0.39527267 25:0.46794167 26:0.61741847 27:0.23788111 28:0.618994 29:0.72096509 30:0.49498221 31:0.63392538 32:0.34837225 33:0.56688374 34:0.57359427 35:0.28789762 36:0.50043339 37:0.28281891 38:0.69761556 39:0.51848471 40:0.58549213 41:0.47926831 42:0.56916767 43:0.49100932 44:0.62568367 45:0.51962328 46:0.15418784 47:0.59762919 48:0.46588281 49:0.38329014 50:0.36845979 51:0.42244601 52:0.43454283 53:0.47794378 54:0.47673425 55:0.46723995 56:0.59415549 57:0.34768942 58:0.5974406 59:0.34881395 60:0.39045689 61:0.67094594 62:0.41022661 63:0.55696607 64:0.49993813 65:0.44337809 66:0.60459238 67:0.40851167 68:0.51500863 69:0.5764342 70:0.43325242 71:0.73893881 72:0.8697812 73:0.73767 74:0.65230417 75:0.8299166 
0 0 0 0 0 0 0 0 0 0 0 0.0627117208104951 0 0 0 0 0 0 0 0 0 0 0 0.5000494211299404 0 0 0 0 0 0 0 0 0 0.03429639455591335 0.4182693906203567 0 0 0 0.4152586848779131 1:0.26676857 2:0.23930557 3:0.56534994 4:0.74557769 5:0.31322202 6:0.3852016 7:0.48958763 8:0.44692439 9:0.57441419 10:0.33028099 11:0.26976165 12:0.68594497 13:0.58544272 14:0.63669223 15:0.28641781 16:0.57357293 17:0.79492331 18:0.62386495 19:0.50420094 20:0.65443289 21:0.33867189 22:0.3658582 23:0.60194248 24:0.59257108 25:0.50417095 26:0.51273763 27:0.71181947 28:0.46826047 29:0.64794606 30:0.55636555 31:0.56179321 32:0.30671611 33:0.623658 34:0.40867129 35:0.19155788 36:0.47267926 37:0.45578498 38:0.51929998 39:0.52120876 40:0.3679418 41:0.42714044 42:0.5443123 43:0.60798228 44:0.50912273 45:0.40681699 46:0.44088355 47:0.32516164 48:0.49669242 49:0.42152202 50:0.39668566 51:0.44793254 52:0.4496482 53:0.51092285 54:0.53825527 55:0.54003584 56:0.50010502 57:0.57668185 58:0.57128668 59:0.35741523 60:0.46619859 61:0.57209784 62:0.41288519 63:0.47881573 64:0.47687238 65:0.558671 66:0.58473694 67:0.49902511 68:0.45052603 69:0.69651353 70:0.56358731 71:0.67524415 72:0.95218825 73:0.87429136 74:0.6596728 75:0.85252053 
0 0 0 0.3222808477459533 0 0 0.5145140570968283 0.08674702958512397 1.859740080227388 0.380459928603069 0 0 0 0 0 0 0 0 0 0 0 0 1.075253727942996 0 0 0 0.6445751291738282 0 0 0 0 0 0 0 0 0 0 0.6502850255756475 0 1:0.35614479 2:0.40173846 3:0.43165639 4:0.50673991 5:0.70216799 6:0.6231389 7:0.41374749 8:0.45938924 9:0.55451632 10:0.54256088 11:0.3880868 12:0.44895342 13:0.30217019 14:0.56207836 15:0.42461547 16:0.48144105 17:0.669209 18:0.53762639 19:0.44978997 20:0.78701299 21:0.36538991 22:0.69481432 23:0.5613507 24:0.66615367 25:0.37962928 26:0.46208531 27:0.41339412 28:0.6772787 29:0.40025836 30:0.35805285 31:0.51612484 32:0.57728755 33:0.66025347 34:0.40586233 35:0.31457373 36:0.7563625 37:0.42219743 38:0.39811409 39:0.3637867 40:0.28983983 41:0.59680074 42:0.51190454 43:0.38855475 44:0.64035815 45:0.57965446 46:0.28433985 47:0.51605892 48:0.45006526 49:0.57528472 50:0.45989409 51:0.36514252 52:0.49898738 53:0.73253036 54:0.60726541 55:0.49356616 56:0.60147405 57:0.22051984 58:0.49977034 59:0.48089564 60:0.30199468 61:0.43482909 62:0.31721142 63:0.16773219 64:0.42922065 65:0.61286277 66:0.52021599 67:0.54396284 68:0.54160255 69:0.71128368 70:0.56534433 71:0.73708624 72:0.84527063 73:0.77462071 74:0.74742699 75:0.81249571 
0 0 0 0 1.322867218667053 0 0 0.6356714232840082 0 0.3440657353093444 1.006003693270215 0 0 0 1.44691518595988 0 0.5221453508490509 0 0.2435204426726416 1.685404888596521 0 0 0 0.7719875083221028 0 0 0 0 0 0 0 0 0.9956099575665777 0 0 0 0 0 0 1:0.23540735 2:0.40102294 3:0.82166493 4:0.74995065 5:0.63814563 6:0.27691212 7:0.49918234 8:0.46862689 9:0.54143554 10:0.16338234 11:0.20871544 12:0.55977774 13:0.52936143 14:0.33879113 15:0.4742671 16:0.39955401 17:0.84017295 18:0.54144269 19:0.31540018 20:0.61724877 21:0.44006521 22:0.52875322 23:0.53726619 24:0.61253881 25:0.5425998 26:0.7088874 27:0.5349949 28:0.29731268 29:0.58278245 30:0.65377378 31:0.42077252 32:0.55614603 33:0.59433794 34:0.53842711 35:0.58615547 36:0.65082401 37:0.27444825 38:0.46494401 39:0.56588429 40:0.35424596 41:0.73973256 42:0.41758138 43:0.4754754 44:0.48510918 45:0.60329884 46:0.41153315 47:0.55791265 48:0.40016007 49:0.5707866 50:0.51582694 51:0.52279276 52:0.45624802 53:0.49111414 54:0.54103887 55:0.51866823 56:0.55038172 57:0.48451564 58:0.58644235 59:0.27058691 60:0.47420973 61:0.5437541 62:0.46156588 63:0.45484456 64:0.47449589 65:0.52201992 66:0.5267334 67:0.42695853 68:0.44282424 69:0.64248824 70:0.52773982 71:0.78442717 72:0.92867404 73:0.85253823 74:0.69463855 75:0.82141948 
0 0 0 0 0 0 0 0 0 0 0 0 0 0 0 0 0 0 0 0 0 0 0 0 0 0 0 0 0 0.172287207566185 0 0 0 0 0 0 0 0 0 1:0.49059579 2:0.72105581 3:0.47135231 4:0.50305659 5:0.48842013 6:0.53414387 7:0.50773841 8:0.74777174 9:0.34766686 10:0.31461513 11:0.27426147 12:0.47030714 13:0.44244477 14:0.43030217 15:0.32116652 16:0.42080703 17:0.53328401 18:0.34338555 19:0.6506868 20:0.68827254 21:0.79490501 22:0.63405573 23:0.43555513 24:0.40446952 25:0.30503136 26:0.52758038 27:0.38879892 28:0.57505888 29:0.50755572 30:0.62581271 31:0.47066873 32:0.45633712 33:0.6766178 34:0.39412373 35:0.10565227 36:0.71947336 37:0.56964391 38:0.36245358 39:0.55151975 40:0.52678049 41:0.49577013 42:0.49288017 43:0.50162596 44:0.54287237 45:0.41845676 46:0.23827638 47:0.45896575 48:0.51513588 49:0.72319406 50:0.57826084 51:0.37786609 52:0.5681963 53:0.60291684 54:0.29285961 55:0.49667841 56:0.54926872 57:0.51433623 58:0.5145787 59:0.27889955 60:0.52049881 61:0.44446915 62:0.60092002 63:0.30419967 64:0.39287344 65:0.35735369 66:0.554757 67:0.45831284 68:0.36146909 69:0.60032082 70:0.50731313 71:0.77491033 72:0.90481752 73:0.8781603 74:0.63624066 75:0.81908071 
1.640591077670061 0 0.3776910750847872 0 0 0 0 0 0 0 0 0 0 0 0.5193897735042812 1.015060576536232 0 0.17523490121873 0 0 0 0 0 0 0.4522646745195084 0 0 0 0 0 0 0.03478860541915322 0 0 0 0 0 0 0 1:0.32650277 2:0.50683212 3:0.42904529 4:0.54967898 5:0.66682464 6:0.68190366 7:0.60696244 8:0.44179994 9:0.48954847 10:0.36913979 11:0.47527301 12:0.3645733 13:0.35149321 14:0.65167278 15:0.42977783 16:0.46338016 17:0.54449272 18:0.39147639 19:0.50554878 20:0.55507326 21:0.7898497 22:0.61611629 23:0.44374079 24:0.5283761 25:0.50225317 26:0.43376556 27:0.59690452 28:0.51469827 29:0.72106463 30:0.39265436 31:0.42581594 32:0.1746508 33:0.620426 34:0.48438695 35:0.49667349 36:0.696922 37:0.55081153 38:0.56199092 39:0.47405723 40:0.5499348 41:0.36715788 42:0.56188351 43:0.58578777 44:0.63650483 45:0.31548759 46:0.16511071 47:0.28816953 48:0.49028498 49:0.52037966 50:0.53778321 51:0.37161374 52:0.48124203 53:0.41819659 54:0.42370939 55:0.54905123 56:0.65743756 57:0.43427217 58:0.6203596 59:0.37192053 60:0.42478988 61:0.53044248 62:0.33747128 63:0.52657509 64:0.45971107 65:0.39118442 66:0.55937666 67:0.35944402 68:0.42652434 69:0.55093259 70:0.49149022 71:0.7287398 72:0.86795485 73:0.83701438 74:0.72253489 75:0.85442209 
0 0 0 0 0 0 0.362922127146975 0 0.829920136029447 0 0.2890627217048439 0.71491016602082 1.544604694776915 1.199227170139781 0 0.08899360198195164 0 1.161340341371722 0.00475126850585483 0.1876291876827787 0.4220695827745958 0 1.042647596062536 0 0 0.6043232702535497 0 0 0.004497447723257918 0 0 0 0.4722655998802088 0.1149413667853139 0 0 0 0 0.4149003483621091 1:0.42274663 2:0.41794991 3:0.58011895 4:0.67344666 5:0.64954394 6:0.86513871 7:0.28122675 8:0.5486306 9:0.48021871 10:0.40283719 11:0.53329909 12:0.60547155 13:0.37215409 14:0.39744452 15:0.49970642 16:0.36951172 17:0.32271498 18:0.35733706 19:0.41829917 20:0.5197252 21:0.58600605 22:0.58101839 23:0.29620609 24:0.60157019 25:0.43725488 26:0.27023962 27:0.49340916 28:0.70241374 29:0.51095074 30:0.65527654 31:0.15713045 32:0.49702743 33:0.62134629 34:0.39453053 35:0.59613657 36:0.19248998 37:0.40565974 38:0.34746519 39:0.71280658 40:0.66489065 41:0.41854513 42:0.56772006 43:0.67000616 44:0.45101511 45:0.71638399 46:0.24277586 47:0.3551383 48:0.32319483 49:0.51875538 50:0.56824261 51:0.35986489 52:0.66011298 53:0.72940844 54:0.48788807 55:0.51962227 56:0.60327446 57:0.40235102 58:0.62264514 59:0.28042558 60:0.5651803 61:0.55677402 62:0.46127841 63:0.47290364 64:0.44030508 65:0.49835053 66:0.47743872 67:0.35966974 68:0.59482962 69:0.72793454 70:0.49295282 71:0.68050772 72:0.90811491 73:0.84123188 74:0.6569078 75:0.7694357 
1.615775761536284 0 0 0.8236797196533707 0 0 0 1.030059314146887 0 0 0 0 0.07446979933473057 0 0 0 0 0.385237765231261 0 0.2915847611830719 0 0 0 0 0.07363086780271921 0 0 0 0 0 0 0 0.4981377980628899 0 0 0 0 1.453882297261877 0 1:0.58430094 2:0.58042639 3:0.7609722 4:0.5806427 5:0.38400173 6:0.53428334 7:0.42277423 8:0.69421244 9:0.40009031 10:0.29922482 11:0.41861996 12:0.58328837 13:0.26352459 14:0.26987666 15:0.5172025 16:0.43277043 17:0.5097062 18:0.67643702 19:0.51754278 20:0.58848298 21:0.57890874 22:0.6152426 23:0.38773841 24:0.55839717 25:0.36589524 26:0.41144767 27:0.48729318 28:0.5235948 29:0.56828576 30:0.62785339 31:0.64043158 32:0.28890243 33:0.6460768 34:0.34642825 35:0.3307595 36:0.58701736 37:0.39576465 38:0.42819345 39:0.6572935 40:0.58505601 41:0.46479982 42:0.51171923 43:0.81058985 44:0.41165563 45:0.59497112 46:0.31003645 47:0.36820099 48:0.31114203 49:0.46608713 50:0.58593011 51:0.31818387 52:0.61529601 53:0.56363297 54:0.40153974 55:0.48798254 56:0.52391446 57:0.45968002 58:0.60960215 59:0.27765071 60:0.36517936 61:0.54239064 62:0.50792176 63:0.53315341 64:0.46190295 65:0.4688364 66:0.56726682 67:0.33543634 68:0.49909475 69:0.74494445 70:0.61649519 71:0.7211073 72:0.86637533 73:0.81401163 74:0.64290547 75:0.82691407 
0 0.7573113326491042 0 0.8393212739643994 1.438280596824027 0 1.128884338279569 0.6330242411910674 0 1.972795187613955 0.3254112469734186 0 0.7237002442988931 0.3734517710445442 0.1739598127546382 0 0.6210947175652904 0.8272360618235508 1.117471845249745 0 0 0.6590277482915633 0 0 0.8404141354284833 0.2682662391315628 0 0 0 0 0 1.472442802892384 1.561786213958844 0 0 0 0.7079436189700866 0.9174341662336234 0.05038256921865518 1:0.47340345 2:0.43527997 3:0.4869667 4:0.21775612 5:0.42530912 6:0.77229631 7:0.48403999 8:0.34978932 9:0.6819095 10:0.37634629 11:0.32606822 12:0.41901535 13:0.47248602 14:0.45807663 15:0.32908747 16:0.52339113 17:0.69041032 18:0.32630673 19:0.70878845 20:0.46189028 21:0.42986622 22:0.75442117 23:0.38724464 24:0.25072312 25:0.35057333 26:0.67377442 27:0.71531653 28:0.7028628 29:0.5114184 30:0.55366129 31:0.40934256 32:0.39817002 33:0.49306777 34:0.36713272 35:0.30759096 36:0.47941971 37:0.64576328 38:0.55318546 39:0.60664201 40:0.48321408 41:0.41009384 42:0.60168844 43:0.46652544 44:0.76921499 45:0.46706879 46:0.31452781 47:0.44638893 48:0.55503619 49:0.57957447 50:0.33111036 51:0.43506122 52:0.59036255 53:0.53838968 54:0.48147866 55:0.53587055 56:0.5647471 57:0.41746724 58:0.66159374 59:0.4632093 60:0.34128979 61:0.5654242 62:0.51600772 63:0.45094219 64:0.43400049 65:0.42722949 66:0.49852651 67:0.38484955 68:0.54026169 69:0.67049378 70:0.56021684 71:0.72673529 72:0.90962029 73:0.7141372 74:0.67923415 75:0.8126381 
0 0 1.722082067831736 0 0 0.1960835890973786 0.6247082584696726 0.0731232110203692 1.954240515162686 0.06802786550108876 0.4810504462257276 0 0.01697691949807486 0 0.4708837826109668 0.7280061175163689 0.0112553569804052 0.02519781264713307 0 0 0 0.384546173604424 1.193881367600456 0.3069218235849407 0 0 0.2939994542245539 0 0 0 0.9552327658413543 0.01117745832728289 0.6518375250462539 0.7392600125350257 0.9166925802489617 1.58187376096153 0.7260994939206941 0 1.041975882986231 1:0.61786342 2:0.52174848 3:0.39220592 4:0.42985049 5:0.3629047 6:0.64015561 7:0.43591201 8:0.28654316 9:0.64798504 10:0.39097428 11:0.31055015 12:0.56428182 13:0.50347298 14:0.4336096 15:0.31674829 16:0.49684462 17:0.43654716 18:0.36204764 19:0.91457611 20:0.44761509 21:0.47731441 22:0.49010736 23:0.48239034 24:0.43293953 25:0.31599522 26:0.73988974 27:0.85931551 28:0.56368512 29:0.58790648 30:0.63383532 31:0.43245849 32:0.1982587 33:0.38259259 34:0.34729034 35:0.38008261 36:0.4376379 37:0.41441575 38:0.37205383 39:0.689026 40:0.37169686 41:0.42811006 42:0.67389101 43:0.64198554 44:0.5702312 45:0.47530553 46:0.51054734 47:0.37561566 48:0.40094385 49:0.56337011 50:0.46932301 51:0.3923018 52:0.63197476 53:0.48447672 54:0.42820954 55:0.58037657 56:0.51896733 57:0.50774795 58:0.59513545 59:0.41673777 60:0.46964028 61:0.41980779 62:0.37445202 63:0.39012939 64:0.50292587 65:0.55371779 66:0.50537646 67:0.36149269 68:0.54254472 69:0.74317014 70:0.5920127 71:0.67815244 72:0.88166118 73:0.73602057 74:0.74427295 75:0.8125571 
0 0 0 0 0 0 0.08964216284624824 0 0 0 0 0 0 0 0 0 0 0 0 0 0 0 0 0 0 0.6534316212887123 0 0 0 0 0 0 0 0 0 0 0 0 0 1:0.38778028 2:0.21839488 3:0.51471293 4:0.65175104 5:0.61993486 6:0.54549557 7:0.46103802 8:0.67563379 9:0.35135436 10:0.46292999 11:0.83022243 12:0.41278574 13:0.55691969 14:0.48937747 15:0.30339813 16:0.2795665 17:0.50391561 18:0.21760835 19:0.48121023 20:0.58877492 21:0.41067511 22:0.58590001 23:0.52959061 24:0.63827264 25:0.42631865 26:0.45106885 27:0.44889528 28:0.47460833 29:0.46697292 30:0.69744176 31:0.68819976 32:0.79699802 33:0.60653222 34:0.56059021 35:0.65813935 36:0.4876118 37:0.50859576 38:0.53479719 39:0.39269105 40:0.35600936 41:0.62574816 42:0.35293382 43:0.33642748 44:0.41778535 45:0.43604839 46:0.34182855 47:0.60067493 48:0.51748085 49:0.60441071 50:0.4182024 51:0.39656934 52:0.44938636 53:0.60712129 54:0.67299956 55:0.58209556 56:0.57856137 57:0.29090714 58:0.48913988 59:0.48880833 60:0.47597545 61:0.30894449 62:0.25741121 63:0.17719747 64:0.35266298 65:0.63994467 66:0.53930992 67:0.55424833 68:0.39906839 69:0.6120199 70:0.46223745 71:0.77807134 72:0.92805642 73:0.73758638 74:0.74024761 75:0.82410443 
0.05444700357088886 0 0 0 0 0 0 0 0 0 0 0 0 0 0 0 0 1.255923024493033 0 0.5728772634864078 0 0 0 0 0 0 0 0 0 0 0 0 0 0 0 0 0.1644454872317228 0 0 1:0.26983917 2:0.46845913 3:0.48076901 4:0.63523471 5:0.66444045 6:0.34795874 7:0.37637717 8:0.49323395 9:0.50190336 10:0.65412486 11:0.58547848 12:0.061465386 13:0.51255828 14:0.48232314 15:0.45988733 16:0.27457753 17:0.54388136 18:0.37892291 19:0.32312891 20:0.53363496 21:0.60793239 22:0.56746233 23:0.48703769 24:0.59973264 25:0.30347791 26:0.30566633 27:0.46314245 28:0.53042763 29:0.52445906 30:0.75102514 31:0.78537887 32:0.56642729 33:0.59397864 34:0.52312505 35:0.71223062 36:0.40857258 37:0.61332572 38:0.51976144 39:0.4867152 40:0.61814052 41:0.79365933 42:0.38271955 43:0.40425479 44:0.47659984 45:0.54985845 46:0.27240416 47:0.54279214 48:0.5529663 49:0.57618552 50:0.44768763 51:0.40130898 52:0.40633041 53:0.55943221 54:0.53519791 55:0.45860171 56:0.48705563 57:0.5011524 58:0.5045265 59:0.34818351 60:0.47477543 61:0.56003702 62:0.5006175 63:0.44724238 64:0.49863487 65:0.44110605 66:0.53991944 67:0.46955937 68:0.33412316 69:0.55435812 70:0.41822791 71:0.75487733 72:0.9104932 73:0.82093734 74:0.70098245 75:0.9066416 
0 0 0 0 0 0 0 0 0 0 0.6274494280074288 1.025959938249072 0 0 0 0 0 0.6356574324831653 0 0 0.1748665693483904 0 0.4856528873317419 0 0 0 0 0 0 0 0 0 0 0 0 0 0 0 0.0817983763508844 1:0.27301189 2:0.54317552 3:0.55488664 4:0.52882212 5:0.38258028 6:0.47775799 7:0.51865745 8:0.45314941 9:0.44577572 10:0.41092157 11:0.54427809 12:0.43849474 13:0.62275851 14:0.44194344 15:0.52013522 16:0.5757007 17:0.70865768 18:0.42655298 19:0.47225723 20:0.22325099 21:0.22721897 22:0.50467414 23:0.58324116 24:0.57935792 25:0.66848922 26:0.4656792 27:0.80205864 28:0.42614716 29:0.57835418 30:0.65615231 31:0.53019559 32:0.38751712 33:0.6323787 34:0.39629564 35:0.54761899 36:0.65454227 37:0.63540971 38:0.45610863 39:0.49465379 40:0.44013935 41:0.62433827 42:0.57776535 43:0.76792252 44:0.47002819 45:0.27866617 46:0.34931976 47:0.47319341 48:0.44361961 49:0.43909279 50:0.61311257 51:0.39417025 52:0.43993345 53:0.56315136 54:0.44443867 55:0.51575196 56:0.49658084 57:0.57413709 58:0.56321055 59:0.3574006 60:0.44739422 61:0.46228832 62:0.44315854 63:0.56736934 64:0.48570827 65:0.50906187 66:0.53356785 67:0.45941672 68:0.42429599 69:0.57108682 70:0.45105803 71:0.77419364 72:0.93316388 73:0.80721772 74:0.73645604 75:0.91901326 
0 0 0 0.4451341461727752 0.1310201468684073 1.229741145766621 0 0 0 0 0 0 0 0 0 0 0 0 0 0.2135678026012453 0 0 0.07777736597776071 0.4538093151492978 0 0 0 0.3734736171667197 0 0 0.3588481128470103 0 0 0 0.595494969321944 0 0 0.1833550802160764 0 1:0.50874525 2:0.77425677 3:0.62633061 4:0.75214863 5:0.40204704 6:0.44903275 7:0.50438601 8:0.39195225 9:0.45420423 10:0.60121042 11:0.45621186 12:0.41605255 13:0.49301118 14:0.47510785 15:0.32587829 16:0.4553822 17:0.60616869 18:0.2613548 19:0.70510817 20:0.39123374 21:0.42599687 22:0.50918013 23:0.67268044 24:0.58198732 25:0.43044138 26:0.36199975 27:0.73762101 28:0.4391441 29:0.4374277 30:0.59320933 31:0.61890197 32:0.085749604 33:0.5954991 34:0.46852267 35:0.61835831 36:0.58318454 37:0.704099 38:0.58530998 39:0.46134955 40:0.53749418 41:0.63200957 42:0.44694957 43:0.73001844 44:0.45751005 45:0.30942035 46:0.15828854 47:0.28940776 48:0.47390476 49:0.56976509 50:0.61066455 51:0.30707577 52:0.54731297 53:0.47193828 54:0.45582226 55:0.65738076 56:0.52434033 57:0.6277985 58:0.60770935 59:0.39874932 60:0.54613686 61:0.35926184 62:0.44768557 63:0.50724167 64:0.52221429 65:0.48428535 66:0.52724332 67:0.43750978 68:0.38653347 69:0.57048672 70:0.48019621 71:0.80785966 72:0.88453048 73:0.84050596 74:0.75107431 75:0.85983145 
0 0 0 0 0 0 0 0 0 0 0 0 0 0 0 0 0 0 0 0 0 0 0 0.1783353078091749 0 0 0 0 0 0 0 0 0 0 0 0 0 0 0 1:0.20240688 2:0.38504162 3:0.74727285 4:0.63395321 5:0.37007841 6:0.53360069 7:0.3711026 8:0.64090574 9:0.52198237 10:0.68084252 11:0.28152719 12:0.66495866 13:0.56011462 14:0.67629635 15:0.37163919 16:0.67509323 17:0.65659148 18:0.36315152 19:0.77409387 20:0.42809027 21:0.44180891 22:0.53149611 23:0.45544612 24:0.45057058 25:0.5436734 26:0.72819269 27:0.60122669 28:0.38348606 29:0.64900148 30:0.70815241 31:0.53686941 32:0.4541707 33:0.62893105 34:0.58777088 35:0.39526439 36:0.52725053 37:0.40374291 38:0.394815 39:0.51862407 40:0.4223288 41:0.41837886 42:0.48388076 43:0.53940183 44:0.53758478 45:0.2823512 46:0.30584809 47:0.31957734 48:0.47260484 49:0.48466229 50:0.44475082 51:0.50947022 52:0.56054968 53:0.57274973 54:0.4266347 55:0.50784349 56:0.50704968 57:0.43662953 58:0.5550133 59:0.31363735 60:0.4459573 61:0.52265394 62:0.44224742 63:0.46165437 64:0.47795555 65:0.45023108 66:0.60439026 67:0.48920467 68:0.41442573 69:0.65197659 70:0.4587363 71:0.78598785 72:0.94339591 73:0.80520153 74:0.62120682 75:0.96870279 
0 0 0 0.03814087305828943 0 0.6215429144849242 0.03768160083830239 0 0 0 0 0 0 0 0 0 0.3424719505552251 0 0 0 0 0 0 0 0.8483563914594443 0 0 0.4642157472051334 0.8437479790938589 0 0 0 0 0.5270531422447072 0.5412250678409878 1.124590923652318 0.5009778642533353 0 0 1:0.46401891 2:0.29090467 3:0.47830656 4:0.35847324 5:0.33648393 6:0.68692058 7:0.54602289 8:0.40622652 9:0.56787115 10:0.44625735 11:0.38338298 12:0.57745707 13:0.64369977 14:0.69004601 15:0.45989931 16:0.523269 17:0.71558231 18:0.46174505 19:0.68543637 20:0.48302478 21:0.46561351 22:0.665941 23:0.4346548 24:0.39373857 25:0.37142798 26:0.59713078 27:0.73781031 28:0.3786521 29:0.7775349 30:0.64268857 31:0.47847322 32:0.39986163 33:0.48629087 34:0.54762441 35:0.6125024 36:0.45659739 37:0.22523406 38:0.43709615 39:0.51505506 40:0.53001779 41:0.39415595 42:0.47149521 43:0.58232599 44:0.61926734 45:0.3194361 46:0.45015472 47:0.3186231 48:0.49133933 49:0.31218243 50:0.38594019 51:0.43022496 52:0.62120968 53:0.33849934 54:0.32326877 55:0.58631754 56:0.51574957 57:0.57165051 58:0.66240793 59:0.26805899 60:0.41203469 61:0.48223189 62:0.3872903 63:0.61374086 64:0.48579428 65:0.42976204 66:0.65120739 67:0.45900005 68:0.37388501 69:0.5731132 70:0.53039229 71:0.73723447 72:0.87236577 73:0.80333781 74:0.68640071 75:0.90174329 
0 1.084524714457452 0.6242488901236636 0 0.3890445060018909 0 0.1533933108853999 1.488363162523155 0 0 0 0 0.7110060943363695 1.269386758869856 0 0 0 0 0 0 0 0.6870305339801658 0 0 0 0.3955087610715304 0 0 0 0.1521297068503266 0 0 0 0.4548563687363402 0 0 1.276614177056192 0.1435564894281365 1.52625103977542 1:0.43115827 2:0.33647409 3:0.13387097 4:0.73783112 5:0.52937514 6:0.60706824 7:0.44369048 8:0.54053491 9:0.32268056 10:0.25892895 11:0.4765746 12:0.3577964 13:0.52673829 14:0.69492555 15:0.35526738 16:0.60478085 17:0.58415347 18:0.47301117 19:0.44793627 20:0.34239787 21:0.56861949 22:0.57267225 23:0.63276273 24:0.5243879 25:0.47452396 26:0.41048536 27:0.88985401 28:0.27619287 29:0.7839694 30:0.45681226 31:0.77084279 32:0.30484736 33:0.55000228 34:0.24493612 35:0.59426516 36:0.42774409 37:0.52200824 38:0.45191064 39:0.58706969 40:0.29231173 41:0.57821214 42:0.52721238 43:0.67233515 44:0.47398791 45:0.23359083 46:0.30600992 47:0.33371124 48:0.44916824 49:0.50386018 50:0.50653327 51:0.4474481 52:0.52350414 53:0.59697789 54:0.52304029 55:0.44591856 56:0.40204129 57:0.59517336 58:0.50397319 59:0.43489054 60:0.45117626 61:0.45276657 62:0.38390768 63:0.56297886 64:0.4360503 65:0.46277738 66:0.60361362 67:0.51621139 68:0.39264312 69:0.60397577 70:0.56453544 71:0.76304615 72:0.94328171 73:0.79839545 74:0.61234826 75:0.87085849 
0.1609745562737033 0 0 0 0 0 0 0 0 0 0 0 0 0 0 0 0 0 0 0 0 0 0.3003181333431426 0 0 0 0 0 0 0 0 0 0 0 0 0 0 0 0 1:0.3412089 2:0.37495315 3:0.46164721 4:0.52726185 5:0.60389161 6:0.53901911 7:0.56412464 8:0.79998004 9:0.58917278 10:0.64076287 11:0.4524529 12:0.21168932 13:0.36702806 14:0.2665804 15:0.442424 16:0.55625141 17:0.48097628 18:0.55977803 19:0.42941982 20:0.64498878 21:0.67249954 22:0.66787934 23:0.39934549 24:0.24131218 25:0.4696489 26:0.56009954 27:0.29268876 28:0.59433126 29:0.52700269 30:0.61779255 31:0.3983956 32:0.43530792 33:0.4081971 34:0.56416988 35:0.35390154 36:0.60251456 37:0.42495427 38:0.50740409 39:0.53498924 40:0.67159683 41:0.5373311 42:0.47395408 43:0.37873712 44:0.775307 45:0.52926266 46:0.28561938 47:0.61292231 48:0.49754691 49:0.53849953 50:0.42755383 51:0.45729718 52:0.60915238 53:0.64086664 54:0.45145288 55:0.39556617 56:0.58025748 57:0.40752175 58:0.60535592 59:0.32783917 60:0.3920213 61:0.63250238 62:0.57589859 63:0.44282398 64:0.51103264 65:0.40722719 66:0.49361211 67:0.42824185 68:0.44331697 69:0.5684073 70:0.4597559 71:0.75403303 72:0.9244805 73:0.86426175 74:0.68822223 75:0.82239288 
0 0.2656440509658251 0 0 0 0 0 0 0 0 0 0 0 0 0 0 0 0 0 0 0 0 0 0 0 0 0.3474773275031736 0 0 0 0 0 0 0 0 0 0 0 0 1:0.50989914 2:0.32506514 3:0.2662296 4:0.60267913 5:0.59287703 6:0.43831089 7:0.52812475 8:0.54100031 9:0.73219728 10:0.69721878 11:0.39319175 12:0.35559738 13:0.42675859 14:0.45638967 15:0.42831177 16:0.79353064 17:0.43029001 18:0.64248449 19:0.22574827 20:0.47461095 21:0.27862719 22:0.45514634 23:0.62099653 24:0.54909545 25:0.58557004 26:0.55379248 27:0.54703194 28:0.39858449 29:0.70960718 30:0.62480122 31:0.38417503 32:0.39195514 33:0.39990669 34:0.3306677 35:0.46444902 36:0.5872243 37:0.38590133 38:0.34131435 39:0.55764973 40:0.40151882 41:0.51434338 42:0.49513623 43:0.61032993 44:0.60983968 45:0.45724866 46:0.46677423 47:0.42259634 48:0.52451181 49:0.38059789 50:0.61238629 51:0.43308309 52:0.54747617 53:0.64935464 54:0.46293479 55:0.48661131 56:0.48343396 57:0.60053664 58:0.5412432 59:0.30758402 60:0.40047196 61:0.55521917 62:0.50874853 63:0.38724989 64:0.46159413 65:0.52270514 66:0.52697557 67:0.43233815 68:0.35271409 69:0.67009515 70:0.4692142 71:0.71046191 72:0.95181012 73:0.89376849 74:0.65330136 75:0.84071833 
0 0 0 0 0.3956683542599369 0.9010155032024366 0 0 0.9081068828198146 0 0.7927385011144127 0 0 0 0 0.2624019422093199 0 0 0.1769175507026182 0 0 0 0 0 0 0.7165222806865942 0 0 0 0 0 0 0 0 0 0 0 0 0 1:0.38859951 2:0.29448164 3:0.5884406 4:0.67049849 5:0.51160681 6:0.25831211 7:0.30830416 8:0.68281382 9:0.349067 10:0.61038882 11:0.49541396 12:0.54234785 13:0.41885126 14:0.60659993 15:0.73664707 16:0.67067277 17:0.83197397 18:0.2109509 19:0.54663754 20:0.51625538 21:0.83935112 22:0.33034998 23:0.35466167 24:0.22361061 25:0.58903742 26:0.62632912 27:0.38117656 28:0.4483127 29:0.68510735 30:0.82732213 31:0.18277302 32:0.58635718 33:0.37373674 34:0.47606826 35:0.33160156 36:0.61522013 37:0.46938694 38:0.6703943 39:0.070681125 40:0.64515924 41:0.58345765 42:0.41601327 43:0.35239267 44:0.60243201 45:0.45466316 46:0.31500447 47:0.53324932 48:0.43786234 49:0.7574845 50:0.48433304 51:0.46605447 52:0.45769572 53:0.58773315 54:0.58933651 55:0.54753274 56:0.58490449 57:0.50209814 58:0.57754064 59:0.27275312 60:0.62452185 61:0.50815737 62:0.47021496 63:0.483511 64:0.43536922 65:0.49632677 66:0.47954577 67:0.41255003 68:0.36627299 69:0.59897566 70:0.43866014 71:0.69187903 72:0.9889251 73:0.87512273 74:0.6633116 75:0.77706021 
0 0 0 0 0 0 0 0 0 0 0 0 0 0 0 0 0 0 0 0 0 0 0 0 0 0 0 0 0 0 0 0 0 0 0 0 0 0.2330673057855123 0 1:0.59500694 2:0.60993457 3:0.614407 4:0.71791297 5:0.38309261 6:0.38904923 7:0.48029575 8:0.48919418 9:0.25508827 10:0.58371896 11:0.5059492 12:0.31976151 13:0.55055857 14:0.68933624 15:0.89942044 16:0.54010099 17:0.63682151 18:0.17589371 19:0.39323407 20:0.44230166 21:0.6847921 22:0.38650599 23:0.49189982 24:0.39862615 25:0.65737373 26:0.45785666 27:0.41822326 28:0.40387851 29:0.39953038 30:0.68090534 31:0.39708808 32:0.4139435 33:0.29594523 34:0.43143278 35:0.51694775 36:0.54651576 37:0.49272782 38:0.46149814 39:0.45949611 40:0.66346389 41:0.48046392 42:0.54946589 43:0.42325428 44:0.547647 45:0.39573216 46:0.40794086 47:0.60820794 48:0.35865861 49:0.76094472 50:0.60384518 51:0.43923882 52:0.50162059 53:0.59783792 54:0.42108113 55:0.53023636 56:0.52910942 57:0.56850171 58:0.47203028 59:0.34267178 60:0.55554807 61:0.52124393 62:0.39500549 63:0.54421115 64:0.44871792 65:0.48112109 66:0.50841701 67:0.49151641 68:0.38566327 69:0.53764129 70:0.46936873 71:0.75949115 72:0.93841785 73:0.7998265 74:0.79389602 75:0.84211838 
1.443552410879898 0 0 0.3167618074316519 0 0 0.2186513318020811 0 0 0 2.221265336707264 0 0.132463148885242 0 2.973571105500112 0 0 0 1.241536597854722 0.2957195711431302 0 0 0 0 0 0.4836634245222394 0.490801250386025 0 0.8266739264007897 0 0 0 0.07441966256275244 0.4546040567609855 0.4105207441495374 1.789202994521261 0 0.4242460943029827 0 1:0.46599075 2:0.63360006 3:0.34988075 4:0.26239109 5:0.44694322 6:0.53651577 7:0.22658756 8:0.64510465 9:0.40809375 10:0.51429588 11:0.44977856 12:0.36443233 13:0.41265792 14:0.55083495 15:0.44814613 16:0.49157888 17:0.46506363 18:0.37435505 19:0.60500365 20:0.59823543 21:0.70843786 22:0.76981151 23:0.44329712 24:0.40646535 25:0.26903102 26:0.32780966 27:0.86512667 28:0.56896847 29:0.54247516 30:0.49583375 31:0.4596439 32:0.50310391 33:0.32634705 34:0.3442553 35:0.30083251 36:0.40484443 37:0.57665825 38:0.5236401 39:0.31836399 40:0.51278764 41:0.34471673 42:0.64069569 43:0.458202 44:0.57678229 45:0.61474323 46:0.29510358 47:0.41930351 48:0.47320431 49:0.52700269 50:0.50276375 51:0.27516347 52:0.62336743 53:0.66562682 54:0.57146943 55:0.64458758 56:0.57760876 57:0.32106274 58:0.53739178 59:0.41128656 60:0.3662723 61:0.39844367 62:0.24607222 63:0.31337661 64:0.44674629 65:0.57761627 66:0.4584516 67:0.49344626 68:0.53382623 69:0.77234972 70:0.55821121 71:0.72290558 72:0.85441816 73:0.60726076 74:0.75502598 75:0.7308076 
0 0.2273888581814264 0 0.2253181363278512 0 0.0875081160597731 0 0 2.290195812924284 0.08086871321375798 0 0 0.07593151921699158 0 0 0.34636087005586 0 0 0.2271449815681998 0 0 0.361208443520164 0 1.273839906950841 0 0 0.4017825972971918 0 0 0.8984532744426222 0.83900481443755 0 0 0 0 0.2194076542707286 1.337309203474528 0 0 1:0.59663314 2:0.69476748 3:0.46512273 4:0.45490846 5:0.31214878 6:0.72503167 7:0.42372468 8:0.66101414 9:0.37500286 10:0.46833304 11:0.31203446 12:0.44849241 13:0.5402658 14:0.50867772 15:0.43472424 16:0.56797719 17:0.42482039 18:0.37717304 19:0.6958974 20:0.66446435 21:0.63246882 22:0.4918921 23:0.5171411 24:0.28259718 25:0.25944707 26:0.41553164 27:0.61301738 28:0.35814938 29:0.30126703 30:0.66776282 31:0.5602386 32:0.12963189 33:0.26327065 34:0.44297493 35:0.33181733 36:0.62010568 37:0.45184454 38:0.4166216 39:0.51574063 40:0.59547663 41:0.35245469 42:0.56223416 43:0.50284338 44:0.46912459 45:0.67053825 46:0.22440763 47:0.42277792 48:0.53290343 49:0.47068998 50:0.6508798 51:0.35339659 52:0.766913 53:0.58329946 54:0.31177837 55:0.5750705 56:0.48225743 57:0.59585649 58:0.54462874 59:0.28042209 60:0.50789702 61:0.53653729 62:0.51946664 63:0.40443832 64:0.48985258 65:0.42020476 66:0.57145876 67:0.34709072 68:0.41603613 69:0.67376256 70:0.60446167 71:0.66205972 72:0.85231131 73:0.72593635 74:0.63057518 75:0.85291851 
0 0.2949833129166793 0 0 0 1.307345357407645 0 1.131880505750128 0 0 0.2747286157846902 0 0 0 0.2239049897758391 1.040739697002842 0 0.200475137927224 0.1391789346093054 0 0 1.134464269077013 0 0 0.3589913267896075 0 0 1.346280763031162 0 0 0 0.3044523708923906 0.1044852764135878 0.5247767632617989 0.4643935028778627 0.4477428777804293 0.04534934704177832 0 0 1:0.66133165 2:0.44534209 3:0.56482768 4:0.53436935 5:0.40624672 6:0.38022357 7:0.30810407 8:0.7641111 9:0.75775731 10:0.68109757 11:0.42312703 12:0.30348268 13:0.51685321 14:0.546 15:0.58869326 16:0.67124546 17:0.40127948 18:0.61655885 19:0.54938555 20:0.43613711 21:0.47963551 22:0.73405629 23:0.48733151 24:0.55887896 25:0.68835026 26:0.55901897 27:0.582699 28:0.51056939 29:0.72978508 30:0.40676495 31:0.56554085 32:0.36370003 33:0.50136322 34:0.39297661 35:0.64179045 36:0.42737326 37:0.37715274 38:0.37144628 39:0.51003873 40:0.3453224 41:0.58962762 42:0.49695241 43:0.60432279 44:0.53556275 45:0.38412702 46:0.54569048 47:0.45136663 48:0.47422522 49:0.41876122 50:0.43310216 51:0.28811282 52:0.64418375 53:0.5056631 54:0.6123535 55:0.66798228 56:0.52062452 57:0.44927475 58:0.65256757 59:0.48958325 60:0.32585818 61:0.42135981 62:0.14887208 63:0.29726285 64:0.43742743 65:0.60846972 66:0.52228564 67:0.44231808 68:0.54538625 69:0.76316005 70:0.59945786 71:0.66545588 72:0.88378853 73:0.7448287 74:0.75260568 75:0.80765748 
0 0 0 0 0 0 0 0 0 0.5137138513343324 0.06372121192449749 0.7548307183538848 0 0 0 0 0 0 0 0 0 0 0 0 0 0 0 0 0 0 1.013010771010706 0.682601949195062 0 0 1.533188513630368 0.3732247724440129 0.3926125622222784 0 0 1:0.4987053 2:0.24038905 3:0.72041517 4:0.50689948 5:0.31310993 6:0.3646203 7:0.30266365 8:0.73536301 9:0.67029995 10:0.44003186 11:0.32861146 12:0.38348654 13:0.56656408 14:0.40478837 15:0.45464647 16:0.63196135 17:0.49446973 18:0.37399372 19:0.37911227 20:0.74255311 21:0.35850224 22:0.49140722 23:0.73535609 24:0.59420639 25:0.43412271 26:0.39602903 27:0.53614932 28:0.49202275 29:0.70831627 30:0.66310281 31:0.47661808 32:0.4268885 33:0.6337983 34:0.64270085 35:0.54131305 36:0.47368681 37:0.30465323 38:0.48589364 39:0.61011249 40:0.50705802 41:0.59732115 42:0.63463825 43:0.68749422 44:0.3884505 45:0.36790603 46:0.47451946 47:0.2785109 48:0.58832806 49:0.46569106 50:0.45542097 51:0.36587796 52:0.62230241 53:0.60265666 54:0.4776037 55:0.484633 56:0.49866495 57:0.57381731 58:0.59521484 59:0.31564426 60:0.50408697 61:0.46261501 62:0.43071809 63:0.41548702 64:0.48507857 65:0.4352839 66:0.57015294 67:0.44346452 68:0.52853554 69:0.71647036 70:0.52368975 71:0.64844459 72:0.95759678 73:0.84540904 74:0.59034663 75:0.80240744 
0 0 0 0 0 0 0 0 0 0 0 0.4155523058634565 0 0 0 0 0.1297537345658018 0 0 0 0 0 0 0 0 0 0 0 0 0.5440684591487698 0.3928314648388309 0.7531159762214641 0 0 0.3809463975986553 0 0 0 0 1:0.34493926 2:0.69679403 3:0.19844267 4:0.70837522 5:0.7665993 6:0.47647521 7:0.69243807 8:0.41393906 9:0.60833937 10:0.40351367 11:0.58986056 12:0.56168509 13:0.37662336 14:0.33426598 15:0.41930616 16:0.53345174 17:0.37283275 18:0.53524649 19:0.50941712 20:0.31255391 21:0.56238121 22:0.44933587 23:0.51783651 24:0.5406366 25:0.57180327 26:0.40856144 27:0.65846223 28:0.39095107 29:0.6905359 30:0.61245483 31:0.72125757 32:0.43871894 33:0.41333249 34:0.44838384 35:0.45232344 36:0.43142968 37:0.41020313 38:0.56774312 39:0.32412177 40:0.51800841 41:0.4407838 42:0.47763255 43:0.66575861 44:0.42352504 45:0.20406862 46:0.29575083 47:0.55027407 48:0.40075272 49:0.55123341 50:0.65621912 51:0.39103818 52:0.30145243 53:0.54209632 54:0.65809613 55:0.6269663 56:0.50068957 57:0.48893791 58:0.53693342 59:0.57388735 60:0.29322901 61:0.33397877 62:0.21321665 63:0.32260352 64:0.36227772 65:0.60755247 66:0.57892448 67:0.56758517 68:0.4095839 69:0.60187083 70:0.47343481 71:0.73870873 72:0.8878603 73:0.82559615 74:0.74711925 75:0.84007871 
0 0 0 0 0 0 0 0 0 0 0 0 0 0 0 0 0 0 0 0 0.7127256224302215 0 0 0.6649231477663046 0 0 0 0 0 0 0 0 0 0 0 0 0 0 0 1:0.15546243 2:0.53180307 3:0.29763389 4:0.55429745 5:0.64460617 6:0.5002315 7:0.72990108 8:0.55287552 9:0.48879743 10:0.57778102 11:0.42668548 12:0.56254864 13:0.56041741 14:0.39452061 15:0.28185996 16:0.49794012 17:0.75053877 18:0.52480537 19:0.70436257 20:0.43892556 21:0.46553746 22:0.41510019 23:0.66203529 24:0.60539001 25:0.42202207 26:0.35665935 27:0.75003606 28:0.38371256 29:0.63584173 30:0.72133172 31:0.58367103 32:0.42176297 33:0.5251016 34:0.48263174 35:0.41303435 36:0.63195044 37:0.47018644 38:0.40227878 39:0.43641037 40:0.49914926 41:0.59604323 42:0.49064669 43:0.60843283 44:0.44798347 45:0.32649979 46:0.20915566 47:0.38040233 48:0.46202332 49:0.62075973 50:0.61712962 51:0.44125473 52:0.48605055 53:0.54088473 54:0.50706625 55:0.43172926 56:0.47268978 57:0.5296095 58:0.54181147 59:0.39231414 60:0.44324383 61:0.35779285 62:0.47837561 63:0.4436239 64:0.44173446 65:0.45633972 66:0.62390208 67:0.48471138 68:0.37485623 69:0.58321714 70:0.47735217 71:0.78240865 72:0.92890894 73:0.82359457 74:0.65894037 75:0.91925204 
0.4098990251801903 0 0 0 0 0 0 0.004428436521477506 0 0 0 0 0 0 2.304247472334121 0 0 0 0 0.2153689304689719 0 0 0 0 0 0 0 0 0 0 0 0.2494075031018078 0 0 0 0 0 0 0 1:0.19093819 2:0.21959355 3:0.64122432 4:0.81383538 5:0.36469761 6:0.56132489 7:0.44494864 8:0.49755827 9:0.54692006 10:0.34410897 11:0.38758415 12:0.54766816 13:0.68446553 14:0.38220966 15:0.32294279 16:0.58614886 17:0.48164335 18:0.36430895 19:0.67927992 20:0.599096 21:0.75054014 22:0.46995738 23:0.58330822 24:0.49158439 25:0.57545966 26:0.63679707 27:0.5742268 28:0.40936893 29:0.75180942 30:0.80947888 31:0.6416375 32:0.47153333 33:0.6435141 34:0.58273876 35:0.50468582 36:0.59369421 37:0.58679444 38:0.63964325 39:0.57911092 40:0.52408326 41:0.59851444 42:0.56297243 43:0.6530599 44:0.45819467 45:0.49922666 46:0.36311665 47:0.49490443 48:0.45118603 49:0.59752756 50:0.49490759 51:0.37423021 52:0.45132154 53:0.47162837 54:0.48159859 55:0.50160158 56:0.54505432 57:0.56750071 58:0.49510679 59:0.34526831 60:0.48976666 61:0.46502298 62:0.49890426 63:0.44228122 64:0.45217031 65:0.48966843 66:0.5868094 67:0.41511053 68:0.43876031 69:0.61867583 70:0.56736773 71:0.79480636 72:0.91045702 73:0.80756152 74:0.65577865 75:0.87335044 
0.2841222572172893 0 0.2998688263553164 0 0.1587986245122843 0 0 1.020170032908496 0 0.285880298476981 0.09429382279293531 0 0 0.5199900897741658 0.0728697776402354 0.6472855257108425 0 0.9109477409662329 0.2209786524224787 0 0 0.379176843522293 0.01898937733487004 0 1.509072872590596 0.1856471536674206 0 0 0.5039600337735266 0 0 0 0 0.8652656643253472 0.3662865084629345 0.4521434641441323 2.552685973593692 0 0.640114692639176 1:0.30034786 2:0.80798656 3:0.59713387 4:0.60436583 5:0.72361523 6:0.65482098 7:0.52508897 8:0.67837536 9:0.33699977 10:0.61053777 11:0.65262336 12:0.22022231 13:0.49940893 14:0.16937926 15:0.44848669 16:0.36590621 17:0.60770369 18:0.30166146 19:0.47139761 20:0.45278686 21:0.5183413 22:0.79232073 23:0.39451051 24:0.6322248 25:0.16496468 26:0.62234354 27:0.24206015 28:0.48982543 29:0.4953104 30:0.56354392 31:0.67722696 32:0.82248485 33:0.56726694 34:0.44358313 35:0.58664423 36:0.6255002 37:0.41663387 38:0.4675774 39:0.55390906 40:0.42602214 41:0.7260741 42:0.21505146 43:0.36792725 44:0.47509614 45:0.53514212 46:0.26337764 47:0.71672475 48:0.53114724 49:0.5916838 50:0.5149042 51:0.32113892 52:0.47398812 53:0.57106131 54:0.66403675 55:0.49592385 56:0.57471639 57:0.33854106 58:0.63019943 59:0.39474967 60:0.4170205 61:0.38978061 62:0.12237959 63:0.33689502 64:0.31500721 65:0.51342309 66:0.52712357 67:0.54679352 68:0.51137114 69:0.69667655 70:0.51305085 71:0.69007045 72:0.81133455 73:0.74272501 74:0.79930431 75:0.85241264 
